0.000000 0.000000 0.000000 0.000000 0.000000 0.000000 0.000000 0.000000 0.000000 0.000000 0.000000 0.000000 0.000000 0.000000 0.000000 0.000000 0.000000 0.000000 0.000000 0.000000 0.000000 0.000000 0.000000 0.000000 
-0.093306 -0.034007 0.038127 -0.015503 -0.058747 -0.049974 0.027312 0.072724 -0.039669 -0.095015 -0.027001 0.053076 -0.036428 -0.072854 -0.078651 0.052134 -0.083666 0.010191 0.012930 0.048654 0.096352 -0.056230 -0.009121 0.003731 0.014768 0.011046 0.045709 0.025775 0.059226 0.016743 -0.045047 0.065920 0.082736 0.093080 -0.049583 -0.076011 
-0.056894 0.077729 0.096714 0.003437 0.082713 -0.030288 -0.043487 -0.053715 -0.003142 -0.022138 0.098420 0.013192 0.088054 0.011350 -0.038154 0.084406 0.055120 0.052725 -0.011863 -0.030112 -0.036228 -0.066154 0.095663 -0.077003 0.050589 -0.049383 0.088917 0.033325 -0.056303 -0.060666 0.057314 -0.013197 -0.082937 0.054028 0.090240 0.099776 
-0.076260 -0.053246 -0.053939 0.020597 0.024616 -0.055519 -0.066211 0.012670 0.055831 -0.004364 -0.002924 0.010952 -0.051639 0.085212 0.080840 0.012133 -0.080942 0.076503 0.035130 0.069647 -0.072880 0.024047 0.002972 -0.029183 0.063381 -0.039714 0.057620 0.080444 -0.085686 0.047860 0.080220 -0.061947 0.094614 -0.073719 0.058651 0.019231 
-0.029238 0.092440 -0.068099 -0.073406 -0.011924 0.028976 0.037545 0.036437 0.014189 0.018385 -0.051430 0.033247 -0.005111 0.083700 0.002894 0.022009 0.007747 -0.094134 0.092826 -0.028871 -0.033848 0.050446 -0.048428 -0.019534 -0.001694 -0.068208 0.018519 -0.007079 -0.041927 -0.022830 -0.087849 0.028835 -0.030390 -0.055948 0.055429 0.057686 
0.073028 -0.007026 -0.005877 -0.012783 -0.088640 0.042693 -0.079536 0.006248 0.026394 0.023358 -0.071743 -0.065859 0.029224 -0.078917 0.005270 0.095376 0.071529 0.056842 -0.024158 -0.030165 0.088633 0.094362 0.062756 -0.053294 -0.028468 0.074907 0.075541 0.041142 -0.081041 0.030969 -0.001172 0.091986 -0.076056 0.092951 -0.020797 -0.064697 
0.035644 -0.000333 0.041552 -0.037962 -0.076976 0.069809 -0.003821 0.052248 0.090892 -0.098552 0.047625 0.062421 0.058290 -0.076533 -0.067744 0.046923 -0.082171 0.095012 0.093629 -0.010639 0.069919 0.069170 -0.069497 0.088877 0.000139 0.029331 0.080864 0.024083 0.022282 -0.039933 0.059386 -0.042074 0.059734 0.000938 0.019964 0.082758 
-0.029253 -0.083857 0.035007 -0.038362 -0.082409 -0.017369 -0.075941 0.075881 0.006098 -0.043685 0.022804 0.023927 -0.048673 0.016433 -0.086712 -0.078754 -0.014397 -0.056209 -0.089877 0.085743 0.073121 0.090987 0.009826 -0.004597 -0.048946 -0.030788 0.053329 -0.089212 0.070149 -0.026707 0.093546 -0.059104 -0.010565 0.028553 0.002534 0.007026 
-0.088816 0.026594 -0.017093 0.017283 0.082909 -0.094289 -0.058790 -0.065764 0.022144 -0.045502 -0.044518 -0.092252 -0.001711 -0.034394 0.093490 -0.028590 -0.043407 0.003316 0.066813 0.007647 0.072527 0.020142 0.018435 0.042677 0.093435 0.011981 0.083573 -0.017130 -0.059466 -0.013893 0.089896 -0.048282 -0.087300 -0.027197 0.069001 0.095609 
-0.021486 -0.089789 -0.070155 -0.099341 -0.035291 -0.014672 -0.091594 0.062998 0.050933 -0.098103 -0.065591 -0.092474 0.005212 -0.098778 0.015173 -0.022260 0.021364 -0.066392 -0.079584 0.014799 0.045589 -0.096011 0.097669 0.086123 -0.009904 0.087566 -0.062158 0.002796 -0.039631 -0.093157 -0.001595 0.038884 -0.082946 0.028251 0.039542 -0.018237 
-0.086421 0.047949 -0.055239 0.064512 0.049845 -0.020830 0.072038 -0.044942 -0.019608 -0.012788 0.032797 -0.098244 0.020820 0.053213 0.016555 -0.033591 0.057202 0.014225 -0.047467 -0.052702 0.001790 -0.009626 0.050094 0.062159 -0.002783 -0.051501 0.001043 0.014271 0.076750 -0.059415 0.096034 0.090329 0.088534 -0.059205 0.054841 0.038380 
0.019965 0.026879 0.093437 -0.099643 -0.085909 0.026234 -0.097888 0.034911 -0.020552 0.018668 -0.098680 -0.063350 -0.067108 -0.046147 -0.016052 0.034683 0.044227 -0.065958 -0.003158 -0.058556 -0.017459 0.097885 0.055715 -0.040709 -0.061529 0.051749 -0.050380 -0.072995 0.092544 -0.095539 0.065384 0.012509 0.031340 0.058821 0.012865 0.045430 
-0.014944 0.014978 -0.019659 0.064503 -0.066355 -0.018339 -0.098847 -0.033462 0.035514 -0.014899 -0.098780 -0.020259 0.019143 -0.001937 0.021185 -0.098315 -0.004052 -0.023100 -0.039024 0.034418 -0.071352 0.010596 0.061423 -0.078808 0.015056 0.026807 0.033701 -0.053604 -0.014371 -0.053434 0.091826 0.070684 0.061543 -0.027833 0.035188 0.095188 
0.053828 0.036341 -0.038274 -0.010658 -0.078558 -0.037054 0.069083 0.040586 0.061009 -0.009733 0.042270 -0.043043 0.067167 -0.096754 0.091375 0.095815 0.013842 0.052798 -0.082993 -0.071102 -0.020395 0.050708 -0.024706 0.065234 0.097274 -0.032879 0.035919 0.058817 0.039288 -0.028894 0.054005 -0.006883 -0.092553 -0.084269 0.082458 -0.071110 
-0.021322 0.051541 0.069475 -0.060314 -0.058192 0.011745 -0.003357 -0.091025 0.014991 -0.011982 -0.095209 -0.071167 -0.059184 -0.078202 -0.042269 0.020421 0.072506 0.033026 -0.014345 0.069780 -0.099854 -0.078426 0.028597 0.039434 -0.007320 -0.017398 -0.067449 0.000127 -0.001666 -0.084991 0.029017 0.077011 0.066550 -0.001508 -0.083302 -0.091641 
-0.089763 0.013341 -0.082666 0.025229 -0.098641 -0.077875 0.054062 -0.057826 -0.056077 -0.088207 0.062595 -0.083571 0.044819 -0.051750 0.086209 0.044965 -0.030176 0.014806 -0.015600 0.062504 0.097408 0.016951 -0.037369 -0.004258 0.031960 0.091648 -0.027247 -0.001489 -0.009860 -0.010549 0.006869 0.000377 -0.097208 0.024203 -0.074395 -0.095850 
0.046328 0.079667 -0.053676 0.090250 0.091460 -0.091080 -0.093321 0.036279 -0.042830 0.092888 -0.018756 0.026994 0.007694 0.065644 -0.010503 0.005102 -0.017406 0.052128 -0.099157 -0.085446 0.043776 -0.026404 0.013065 -0.066085 0.063047 -0.080066 0.034292 0.065839 0.044137 0.059897 0.069989 -0.009535 0.039565 -0.083687 -0.019285 0.031025 
-0.074767 -0.012605 -0.032696 -0.017597 -0.019717 0.048548 -0.090604 0.087977 0.014192 -0.001106 -0.006922 0.096786 -0.048978 -0.006078 -0.088660 0.094797 0.067518 0.024405 -0.071288 0.030565 0.044339 0.063004 -0.003596 -0.011524 0.022902 -0.033607 0.078941 -0.037534 -0.017294 -0.040344 0.093491 0.007938 0.047051 -0.039205 0.090341 -0.072666 
-0.090657 0.099737 -0.084690 0.023535 -0.001369 0.008389 0.020321 0.049652 -0.097690 0.031661 0.044449 0.069829 -0.043935 0.073162 0.000394 -0.099596 0.036166 0.096798 -0.011120 -0.040932 -0.036810 -0.032179 0.021534 0.045896 0.027477 0.015025 -0.046166 -0.025472 0.075820 -0.055825 0.001862 0.085164 -0.056087 0.017172 0.008698 0.042543 
-0.074439 -0.070981 -0.007804 -0.072129 0.060680 -0.063355 0.097700 -0.083255 -0.090193 -0.001906 -0.082851 0.045973 -0.005109 0.006029 -0.094959 0.058082 0.073849 0.026575 0.003978 0.001327 -0.058400 0.057812 0.075855 -0.082580 -0.098013 -0.022284 -0.097416 -0.054100 0.094889 0.011282 0.088443 -0.079551 0.040301 -0.019361 -0.051679 0.000981 
0.017284 -0.053980 0.017725 0.027091 0.044114 0.034874 -0.026936 -0.060995 -0.059097 -0.021895 0.097087 -0.085247 -0.095321 0.001064 0.016079 -0.053721 -0.041124 -0.008066 -0.036301 -0.039136 0.069650 -0.033717 0.006764 0.064539 0.077564 -0.004793 0.084988 0.017865 0.075846 -0.066692 -0.081154 -0.006870 -0.020671 0.036571 -0.079779 -0.076557 
-0.028554 -0.006715 -0.037552 0.012349 0.071390 -0.040466 0.027101 0.076069 0.060599 -0.056819 -0.077652 -0.080525 0.035114 -0.013953 -0.019661 0.004764 0.052330 0.087103 -0.030697 0.029894 -0.017690 -0.045709 -0.052240 -0.041844 -0.012401 -0.033394 0.051287 0.066928 -0.096823 0.071508 0.090370 -0.025377 -0.035206 -0.047182 0.086972 -0.063816 
0.012353 0.014073 -0.087747 -0.027049 0.057254 -0.065399 -0.007573 -0.007632 0.020648 0.072766 0.097132 -0.027022 0.059868 -0.033565 -0.097128 -0.057821 0.020726 -0.049369 0.000335 -0.091675 0.017237 -0.048378 0.075252 0.020414 -0.076870 0.065623 0.095037 -0.012076 -0.081559 0.082008 0.024107 0.030793 -0.003919 0.036360 -0.096255 -0.046665 
0.070962 -0.003829 0.045703 -0.008390 -0.031063 0.042835 0.064588 -0.071195 -0.090731 0.067459 -0.029016 0.029995 -0.081909 0.071319 0.038320 0.035328 -0.077060 0.013572 -0.044259 -0.053930 -0.020805 -0.049222 0.033994 -0.002364 -0.067214 -0.041899 -0.071571 0.028867 0.094462 -0.067826 0.082202 0.065423 0.028345 0.027904 -0.042967 0.097281 
-0.029261 -0.078379 -0.073913 -0.019992 0.089080 -0.002930 -0.089997 -0.092829 -0.031611 0.048323 0.042498 -0.008671 -0.038105 0.098240 0.037399 0.041090 -0.050982 -0.028607 -0.061275 -0.018196 0.029494 -0.032846 -0.089329 0.023956 -0.000672 0.092873 -0.010621 -0.072328 0.020777 0.046412 -0.075046 0.091516 0.068033 -0.048959 -0.028475 0.057113 
0.000000 0.000000 0.000000 0.000000 0.000000 0.000000 0.000000 0.000000 0.000000 0.000000 0.000000 0.000000 0.000000 0.000000 0.000000 0.000000 0.000000 0.000000 0.000000 0.000000 0.000000 0.000000 0.000000 0.000000 0.000000 0.000000 0.000000 0.000000 0.000000 0.000000 0.000000 0.000000 0.000000 0.000000 0.000000 0.000000 
0.048111 -0.018472 0.064283 -0.083500 -0.070149 0.006782 0.007829 -0.008254 0.005022 -0.054772 -0.067164 0.054039 0.016621 -0.028438 -0.064157 -0.053885 0.038716 -0.053486 0.070071 -0.061956 -0.060613 -0.040551 -0.034284 0.060164 
-0.094139 -0.009330 0.051680 0.073894 0.041711 -0.076795 0.031006 -0.010178 0.004733 -0.004710 0.006322 0.034584 -0.097929 -0.085850 -0.073670 0.007093 -0.040622 -0.040833 -0.038868 0.075999 0.030728 -0.003025 -0.077886 -0.030556 
0.043489 0.092185 0.007488 0.082876 -0.048366 0.073205 0.043040 -0.042505 -0.036125 -0.005280 -0.068611 -0.094414 0.017924 0.062396 -0.004592 -0.077343 -0.042315 -0.098271 0.057241 -0.040243 -0.084120 0.083571 0.066849 -0.024742 
-0.057262 -0.072018 -0.048743 0.073466 0.024957 -0.026628 -0.057089 -0.031554 -0.034444 0.050399 -0.048678 0.017190 0.023604 0.094361 0.074686 0.087479 -0.010919 -0.093925 0.093064 -0.092995 0.068471 -0.011528 -0.070338 -0.073844 
-0.009799 0.086903 -0.014088 0.006081 0.070474 -0.047238 0.081339 -0.086788 -0.019256 -0.067404 0.086679 -0.094300 0.005967 -0.070410 -0.025854 0.071524 0.079989 0.025468 -0.011286 0.003593 0.019829 -0.036600 -0.008929 -0.091090 
-0.030525 -0.015865 -0.084085 -0.062054 0.072607 -0.054423 -0.035898 -0.037192 -0.067520 0.050014 0.068889 -0.097046 -0.097224 0.050227 -0.083833 -0.016480 0.082823 -0.097155 -0.010780 -0.011209 -0.067565 0.063366 -0.039686 -0.087576 
-0.011166 0.049029 0.016016 -0.091337 -0.087571 -0.092912 -0.082427 -0.018096 -0.008777 -0.066512 0.019849 -0.036170 -0.020935 0.083951 0.026639 0.011545 0.033965 -0.004473 0.014499 0.036741 -0.054245 0.030666 -0.079739 -0.071422 
0.033512 0.009481 0.017369 0.065947 -0.027153 0.077683 0.078371 0.061680 0.026712 -0.005613 0.070343 0.039141 0.001474 0.087916 -0.078956 0.092697 -0.078597 0.040894 -0.043472 0.000468 0.024845 0.083166 -0.087987 -0.041190 
-0.021306 0.026512 0.095552 0.024448 -0.042822 -0.084188 0.053027 0.090689 0.025293 -0.029604 0.056636 0.098140 -0.051921 0.035006 0.059820 0.074791 -0.070607 0.030163 0.013932 0.030868 0.018079 0.034976 0.023565 0.039482 
-0.024130 0.080093 -0.060051 -0.099285 0.063259 -0.048038 -0.040475 -0.058047 0.078474 -0.044924 0.066401 -0.064348 -0.029111 0.019428 -0.073659 0.096182 0.089823 0.082977 0.094322 -0.062098 0.017984 0.054142 -0.087307 0.047377 
-0.015695 0.026625 -0.021755 -0.097616 -0.038399 -0.098190 0.041865 0.037470 0.081903 0.081815 0.038185 0.045163 -0.066223 0.097710 0.087115 -0.087749 -0.047214 0.053517 -0.052098 0.023675 -0.027055 -0.025756 0.019857 -0.037232 
-0.042779 0.014179 0.000670 0.075204 -0.031680 0.013363 0.022581 0.052625 -0.060012 -0.099174 0.055009 0.001589 -0.097364 -0.003126 -0.060941 0.084540 -0.021311 0.077244 0.029702 0.012466 0.074953 0.016817 0.024716 -0.072261 
-0.029666 0.072619 0.051414 0.043279 -0.053138 -0.028729 -0.093953 0.004083 0.085450 0.006717 -0.020713 -0.046230 -0.079920 -0.098132 -0.093605 -0.039932 -0.097306 0.061404 0.061656 -0.094670 -0.041722 -0.099285 0.089870 0.036967 
0.077959 0.019572 -0.050568 0.052912 -0.063610 0.074149 0.080652 0.006724 0.046767 0.032066 -0.049998 0.093630 -0.096663 -0.043951 -0.002287 0.088786 0.062766 0.077000 -0.057444 0.082845 0.078868 -0.051048 -0.057087 0.081562 
-0.089645 -0.095430 0.086893 -0.031366 -0.094715 0.076763 -0.094400 0.083244 -0.003665 -0.044967 0.036156 0.032724 -0.070818 0.016808 -0.060552 0.075949 -0.051126 -0.010549 0.069579 -0.047790 0.045500 -0.032708 -0.059003 0.008265 
-0.055709 -0.016447 -0.008889 -0.076841 0.032505 0.034024 -0.095278 0.042860 0.038593 0.091615 -0.088506 0.043878 0.068377 -0.082906 0.027122 -0.035288 -0.027873 -0.036722 0.097437 0.001308 0.080086 -0.063115 -0.022743 -0.071040 
0.026336 -0.053164 -0.018830 -0.028165 0.014127 0.022167 0.080100 0.058419 -0.094280 -0.028789 0.081578 0.038224 -0.094765 0.086300 -0.018915 0.043828 0.077915 -0.007422 -0.012293 0.046292 0.009672 -0.085171 -0.088996 0.081799 
-0.021893 -0.091559 -0.016893 -0.041806 -0.054674 0.060364 -0.012847 0.071662 -0.092800 0.068323 -0.056503 0.021327 -0.009510 -0.076403 -0.020254 -0.003790 -0.005192 -0.038675 -0.065565 0.000043 -0.052375 0.015519 -0.056129 -0.074461 
-0.091903 0.031577 0.071831 0.017769 0.046406 0.082835 -0.000432 -0.075486 0.091276 0.082674 -0.017293 -0.063398 0.043038 0.069861 -0.091736 0.050238 0.038184 -0.048240 -0.028434 -0.071326 -0.024643 0.051312 0.024884 0.070165 
-0.087364 0.059319 -0.029792 -0.039739 -0.025162 0.014079 -0.014200 -0.017065 -0.054344 -0.042369 -0.099296 0.092062 -0.059533 0.000272 -0.083424 -0.068257 -0.017054 -0.000717 -0.031655 -0.074015 -0.030856 -0.023391 0.076223 -0.092672 
0.028369 -0.052211 -0.063998 -0.096273 0.099101 0.060887 0.073892 -0.088263 0.020205 -0.055900 -0.028002 0.095043 0.058178 0.057799 -0.022021 -0.096166 -0.084570 -0.021317 0.095897 -0.044104 0.078955 -0.087528 -0.012361 -0.038099 
0.011756 0.055984 -0.012114 0.080900 -0.067407 -0.035891 0.088228 0.060962 0.011898 -0.075770 0.064689 0.010999 0.085117 0.038581 0.022736 0.005322 0.082681 0.094735 0.000366 0.040859 0.052533 0.078344 0.044693 0.067963 
-0.042973 0.040590 -0.076141 -0.064018 0.053062 0.011499 -0.002117 -0.035182 -0.032517 0.085769 -0.054282 0.000076 -0.050122 -0.066055 -0.038962 0.061776 -0.041825 -0.074273 -0.027225 -0.056708 0.064308 0.095511 0.048614 0.046988 
0.090246 -0.051020 -0.012153 0.042779 -0.072676 -0.067460 0.010742 -0.015649 0.073130 0.034601 0.020333 0.026192 -0.053900 -0.081785 0.091010 0.013583 -0.096016 -0.063272 -0.086341 -0.046138 -0.029327 -0.025303 -0.084362 0.028849 
0.000424 -0.011587 0.072141 -0.035268 -0.016076 0.020755 -0.088280 -0.025830 0.069735 -0.000432 -0.083052 0.097059 0.032108 0.027690 -0.018590 0.005238 -0.037708 -0.098258 -0.068570 0.008391 -0.080042 -0.077559 -0.078026 -0.076058 
-0.040832 -0.064368 -0.022197 0.029841 0.010329 -0.006559 -0.041310 -0.089247 0.081854 -0.069169 -0.024515 -0.034223 0.051586 -0.012794 0.039947 0.021320 0.086774 0.056895 0.018379 0.018882 -0.015414 0.099789 -0.075880 0.046877 
-0.098468 -0.044450 -0.044731 -0.078511 -0.022009 -0.022757 -0.054569 0.037159 0.012875 0.023234 -0.032999 -0.076796 -0.083325 0.025690 -0.066042 0.098529 0.056521 0.009443 -0.035693 0.008106 0.096649 -0.095746 -0.070573 0.083423 
0.061149 0.047806 0.002304 -0.054265 0.047595 0.026424 0.092612 0.049127 0.081975 -0.052119 0.070616 -0.040034 0.025124 -0.083953 0.097125 -0.062001 0.039282 -0.035874 -0.038797 0.055957 0.089816 -0.004839 0.054486 0.046337 
-0.095396 -0.081207 -0.045557 -0.098747 -0.076954 -0.016130 0.084676 0.084195 -0.068324 -0.013020 -0.070070 0.079272 -0.086596 -0.077458 0.028399 0.095379 -0.029577 -0.000985 -0.044655 0.095547 0.015063 -0.047530 -0.066454 -0.045656 
0.016596 -0.005251 -0.089699 0.006412 0.089910 0.064788 -0.047252 0.094514 0.083580 0.007192 0.095767 -0.093373 0.091062 0.080443 0.090822 -0.077262 -0.032577 -0.079248 -0.097990 -0.019172 -0.056705 0.030408 -0.023793 0.013718 
-0.070576 0.031552 0.009265 0.044486 0.084022 0.042811 0.098830 0.000618 -0.062441 -0.090868 -0.092971 -0.072531 0.073919 -0.040222 -0.078017 0.057500 0.066969 -0.082249 0.064127 0.058031 0.098194 0.054949 0.080769 -0.034383 
0.075701 0.082779 0.046444 -0.081004 0.013187 -0.077349 0.032714 0.042610 0.054203 -0.058021 -0.012903 0.038225 0.084790 -0.014073 -0.061157 -0.077651 -0.004942 -0.054128 -0.050182 -0.031022 0.005650 -0.028198 -0.073523 -0.027381 
-0.010448 0.090604 -0.069350 -0.012254 0.045553 -0.088581 0.053362 0.021254 0.094197 -0.000193 0.040250 0.007384 0.022458 -0.027036 -0.050005 -0.023339 0.014942 0.037091 -0.085114 -0.000268 -0.076982 -0.046271 0.022081 0.018077 
-0.000399 0.071899 0.087054 -0.094749 -0.056299 -0.086468 -0.022130 0.033253 -0.095865 0.008520 -0.079001 0.049688 0.019939 0.074361 -0.029058 0.014136 -0.025832 -0.088808 -0.078479 0.096626 -0.015845 -0.028485 -0.026713 0.099098 
-0.091393 -0.011827 -0.001170 -0.068375 0.041902 -0.079089 0.049702 -0.058497 0.092810 0.036756 -0.053246 -0.063489 0.050287 0.024624 0.069764 0.054423 -0.066856 0.090762 0.004111 0.053083 0.065123 0.075053 -0.032781 -0.060709 
0.086245 -0.011260 -0.064083 -0.029600 0.060255 0.009204 -0.030502 0.068862 0.097377 0.068328 -0.099513 0.039279 0.089238 0.050189 0.080783 0.082048 -0.013055 -0.072463 -0.081441 -0.062768 0.052161 0.088323 0.091655 0.085305 
