-0.095474 -0.028764 0.002476 0.083254 0.040624 0.014872 0.088074 0.022138 -0.083882 -0.071831 -0.077732 -0.068152 -0.081901 0.097569 0.091990 0.066601 0.053465 -0.035601 0.020248 -0.011398 -0.010865 -0.052333 0.088749 0.092812 
-0.094100 0.084295 0.046069 -0.062466 0.012083 -0.006149 -0.015311 0.041572 -0.090803 -0.071819 0.053937 -0.046588 -0.067563 0.043320 -0.099429 0.046087 -0.064739 -0.076355 0.055894 -0.075920 0.029590 0.004639 -0.041688 0.048041 
-0.000600 -0.031943 -0.062315 0.067445 0.058697 -0.003402 0.022941 -0.031923 -0.088657 0.042027 -0.014335 0.056181 0.070588 -0.028933 -0.011320 -0.102891 -0.025563 0.001294 0.014598 -0.073488 -0.023565 -0.058276 0.039802 -0.089774 
0.101262 0.002719 0.037836 0.061254 -0.087004 0.088262 0.121913 0.011222 -0.045544 0.092353 0.072741 -0.042959 -0.064488 0.055898 -0.098745 -0.048501 -0.043989 0.069193 -0.083311 -0.020135 -0.077196 0.139678 0.084882 -0.094556 
0.001624 0.067796 0.060364 -0.092160 0.042602 -0.077489 0.091089 -0.071572 0.002699 0.067456 0.065003 -0.072059 -0.043417 -0.053052 0.022267 0.034130 0.030002 -0.008488 0.070372 0.013994 0.039978 -0.059468 -0.093276 -0.001478 
-0.017932 0.082775 0.023156 0.083102 0.089039 -0.073522 -0.047984 -0.067916 0.093132 0.003617 -0.076982 0.084898 -0.033260 -0.003520 -0.076735 -0.006063 -0.093213 0.021982 -0.069391 -0.050651 0.074904 0.054360 -0.063685 -0.096330 
-0.054531 0.066760 -0.072669 0.079470 0.059409 0.050975 0.008267 -0.002264 -0.037619 -0.024730 -0.065363 0.020995 0.051034 0.066046 -0.085452 0.075432 -0.062682 0.042388 -0.019827 -0.048144 0.058328 0.043446 -0.084836 0.031026 
-0.056801 -0.000229 -0.096858 -0.095242 0.061558 0.017850 -0.105286 -0.077804 0.092103 -0.026506 -0.081715 0.052209 0.061026 -0.015237 0.054493 0.093108 -0.029197 0.098377 -0.081029 0.093798 -0.090047 -0.082992 0.089797 -0.020959 
0.006101 -0.090946 -0.058477 0.057983 0.002151 -0.037222 -0.055906 0.124987 0.028403 -0.057822 -0.064852 -0.018168 -0.043810 0.017283 0.024412 0.050360 0.034561 -0.064950 -0.106236 -0.037564 -0.020952 0.049820 -0.048639 0.073381 
-0.086202 -0.067290 -0.057959 -0.007628 -0.063728 -0.050502 0.030870 0.004976 -0.041437 0.064188 0.077370 0.068535 -0.080440 0.009315 0.016617 -0.088072 0.085838 0.022344 0.033164 -0.087295 0.013343 -0.059059 0.080636 0.071872 
0.097969 -0.073307 -0.084614 -0.084601 -0.090077 0.098838 0.035981 0.072268 0.071453 0.068736 0.088181 0.003003 -0.002236 0.068722 0.083590 0.068315 -0.023568 -0.042041 0.042034 -0.058150 0.051841 0.037658 -0.075984 -0.027823 
0.081154 0.091865 -0.067585 0.038354 -0.012221 -0.027794 0.062161 -0.100522 0.026091 0.042863 0.007799 -0.099314 -0.073858 0.067094 -0.045876 -0.067383 0.088432 -0.080487 0.078616 0.076255 0.030941 -0.042669 -0.018607 0.046571 
-0.001500 0.026395 0.035424 0.074837 -0.121719 -0.011381 0.008514 -0.050725 0.091827 0.094851 -0.054612 -0.032056 -0.029032 0.102477 -0.041667 0.013108 -0.006567 0.045389 -0.052439 -0.051413 0.021425 0.096050 -0.002341 0.009848 
-1480.204259 56.420019 1461.851316 609.502374 1320.873415 -381.569957 -92.983843 -500.785712 -131.332277 -1269.128347 -728.718542 -623.739656 569.715839 295.372235 335.670152 -361.469790 -478.555371 2033.841270 1594.319210 -1421.996272 -887.455948 -765.660417 330.824421 -613.399294 
-1480.230874 56.376022 1461.833151 609.566252 1320.960822 -381.707114 -93.133727 -500.811274 -131.350306 -1269.292260 -728.881025 -623.811750 569.813057 295.306095 335.526117 -361.371706 -478.591670 2033.821638 1594.321671 -1422.008166 -887.269999 -765.725899 330.835584 -613.249202 
-1480.111587 56.474805 1461.734391 609.564468 1320.948932 -381.769470 -93.145913 -500.879193 -131.427027 -1269.261805 -728.862211 -623.765455 569.853076 295.284581 335.664970 -361.419376 -478.491946 2033.890188 1594.247667 -1422.002250 -887.407109 -765.766119 330.807348 -613.292968 
0.027673 0.000676 -0.086335 0.011723 0.017559 -0.091120 -0.098500 -0.054982 0.015971 0.076995 -0.013778 0.059120 -0.070392 -0.002366 0.003467 0.085747 -0.040973 -0.026762 -0.044996 -0.004589 -0.054254 -0.012755 -0.061302 -0.058944 
-0.016306 -0.082482 0.057677 -0.076232 -0.039531 -0.054100 -0.010471 -0.074248 0.009415 -0.080456 -0.022428 -0.013834 -0.004868 0.000430 0.082690 -0.008609 0.081060 0.005594 0.077099 0.095386 -0.045549 0.032163 0.069359 -0.055315 
-0.008948 -0.066375 -0.093834 -0.076821 -0.091484 0.083167 -0.036478 0.072298 0.021798 -0.035007 -0.075559 -0.058685 -0.027871 0.057969 0.069076 0.040935 -0.051329 0.073997 -0.058239 0.067999 -0.071243 0.080752 0.073672 0.030194 
0.011405 0.094168 0.064556 0.044755 0.053581 0.021007 -0.049903 -0.105402 -0.020294 -0.060412 -0.019513 -0.031838 -0.047005 -0.091065 -0.033823 0.034685 -0.021143 -0.051930 0.076262 -0.030142 -0.009960 -0.041766 -0.039234 0.087600 
-1480.205429 56.511306 1461.786567 609.447890 1320.987631 -381.763183 -93.173540 -500.897221 -131.429146 -1269.218956 -728.832837 -623.795465 569.908683 295.198925 335.693813 -361.414061 -478.450281 2033.841572 1594.317769 -1421.923292 -887.474682 -765.776515 330.964307 -613.337340 
1480.238902 -56.472929 -1461.868085 -609.379060 -1320.977127 381.636039 93.035642 500.887152 131.520252 1269.333587 728.850203 623.682601 -569.854116 -295.279603 -335.572475 361.438980 478.580766 -2033.869246 -1594.349431 1421.978813 887.441934 765.873000 -330.895665 613.310946 
0.065896 -0.010806 0.032668 -0.017579 -0.009984 -0.059579 0.053376 -0.013633 -0.074002 0.004077 -0.060946 0.100209 0.126625 0.029170 0.095984 0.051195 0.083699 -0.050399 0.113218 0.008473 -0.113816 -0.028815 0.050489 -0.023653 
0.059756 0.078783 -0.071446 0.095742 -0.077232 0.086231 -0.034720 -0.022480 -0.083192 0.063659 -0.046927 -0.082722 -0.094254 0.082487 0.078311 0.089368 0.043559 -0.035644 0.083751 -0.078557 -0.085416 0.103879 0.091147 -0.080759 
-0.025177 -0.094045 0.061690 -0.056545 -0.079702 0.092808 0.130213 0.096308 0.083700 0.077924 0.126239 -0.032938 0.045155 0.034697 -0.108089 -0.041398 -0.009734 0.053171 -0.041555 -0.011817 0.003370 0.127964 -0.083132 -0.010378 
-0.055981 -0.054535 0.073152 0.055387 0.082821 -0.029289 -0.019805 -0.096286 0.016101 0.082024 -0.065486 0.032260 -0.073867 -0.000382 -0.072792 -0.007388 -0.101250 0.003997 -0.053604 0.019724 -0.070284 -0.015476 0.036179 0.092051 
-0.046029 0.034232 0.063416 0.045137 -0.054825 0.039833 -0.012213 0.020018 0.023231 0.043209 -0.030298 0.068326 -0.110591 0.088650 -0.098908 0.081517 -0.043250 0.048873 -0.033125 -0.052566 0.041915 0.087954 0.007088 0.007069 
-0.048046 0.077768 -0.077488 0.053971 -0.061823 -0.010037 0.092879 0.043782 0.114937 0.075940 -0.076042 -0.110526 -0.051084 0.024611 -0.112249 0.062767 0.113470 -0.037843 -0.013095 0.052274 -0.059069 0.012887 -0.076670 0.034700 
-0.065848 -0.062519 0.083228 -0.069267 -0.100073 0.108166 0.008384 0.034471 0.075221 0.031529 -0.066586 -0.070209 -0.026847 -0.089578 -0.120260 -0.087691 0.099167 -0.019734 -0.055170 0.006391 -0.074550 0.116204 -0.024184 -0.045061 
-0.073867 -0.085303 0.015251 -0.041316 -0.049692 0.006602 0.028953 0.041645 -0.021313 -0.059861 -0.047275 0.102159 0.089748 0.063053 -0.051533 0.026823 -0.076074 0.095183 -0.093647 0.077466 0.023932 -0.048823 0.067441 -0.084214 
0.073635 -0.054084 0.084662 0.058555 0.087767 -0.104093 -0.060387 0.026252 -0.077736 -0.035076 -0.037566 -0.019143 -0.028728 -0.060456 0.081981 0.023568 0.005382 -0.067911 0.073302 -0.063872 -0.013834 0.001101 0.019205 -0.015836 
-0.093670 0.039608 -0.004922 0.080435 0.100613 -0.095325 -0.066415 0.025188 0.045881 -0.116098 -0.116077 0.044778 0.066512 0.029218 0.123402 -0.081631 0.009554 0.004128 -0.018407 -0.070694 -0.109323 0.022728 -0.085906 0.007128 
0.085991 0.019253 0.002438 0.018104 -0.105775 0.022042 0.077746 -0.067177 0.096048 0.027513 0.072577 0.067553 -0.106942 0.042599 -0.015335 0.082517 -0.033991 -0.060243 0.020877 0.009081 -0.065976 0.066449 0.073190 0.039815 
0.003021 -0.093438 0.006496 -0.057008 -0.069476 -0.089050 -0.057610 -0.091098 0.079011 -0.095075 -0.059906 -0.079814 0.067490 0.081397 0.099642 0.001583 -0.005612 -0.084941 0.059173 0.081541 -0.052705 -0.010291 0.022388 0.017482 
-0.055202 0.007853 -0.096125 -0.093136 0.081724 -0.102576 0.018149 -0.067665 -0.077103 -0.054784 0.065678 0.080878 -0.047638 0.094679 -0.023652 -0.019871 0.038237 0.050762 0.072864 -0.008879 0.042501 0.007196 -0.001862 -0.066431 
0.093570 0.095916 0.005534 0.028596 0.059375 -0.010586 -0.074376 0.094485 -0.033044 0.074750 0.102809 0.075309 0.037891 0.035745 -0.034479 -0.007809 0.052629 0.075194 -0.032622 0.088349 0.090719 -0.062404 0.009730 0.053760 
1480.173180 -56.469634 -1461.790895 -609.464167 -1320.941153 381.729320 93.128853 500.879393 131.435279 1269.236295 728.848168 623.725838 -569.844965 -295.272983 -335.655418 361.431079 478.538021 -2033.799211 -1594.297205 1421.981791 887.420826 765.812188 -330.857497 613.300389 
0.078152 0.072783 -0.068067 -0.040733 -0.041254 0.038102 0.060548 -0.017765 0.056267 -0.086750 -0.098453 -0.058779 -0.023224 0.047868 -0.091314 -0.016599 -0.052164 -0.007785 0.017643 0.000455 0.092480 0.038884 -10.308945 -0.029327 0.058489 0.122936 -0.076158 -10.357235 -10.265103 0.051884 -0.011087 -0.090174 -0.048131 0.005364 0.059188 0.093597 
0.029267 0.002872 -0.063253 -0.025248 -0.081595 0.026762 0.064437 0.030510 -0.031794 0.056053 0.147742 0.057483 -0.002162 0.043113 0.053764 0.089563 0.040767 0.003521 -0.034986 0.080779 0.068273 0.042277 0.364442 0.061356 -0.074413 0.012186 -0.025716 0.439949 0.325176 0.006044 -0.035649 0.004660 0.038548 -0.080012 -0.029981 -0.062835 
-0.066060 0.004794 0.044325 0.027256 0.041871 -0.083355 -0.018960 0.010124 -0.049798 0.017989 -0.012183 0.040970 -0.044206 -0.025608 0.056047 0.086798 0.005164 -0.076656 -0.055321 -0.092041 -0.002298 -0.095978 10.220387 0.001814 -0.018406 0.006588 -0.097096 10.198149 10.095471 0.100146 0.012888 0.014604 -0.092865 -0.113436 0.062862 0.018802 
-0.058717 -0.046565 0.045104 -0.003818 0.055409 0.058995 0.057588 0.013786 -0.019132 -0.037297 0.019775 -0.068792 -0.015933 0.034093 -0.030601 -0.091180 -0.009549 -0.076607 -0.089551 0.095264 -0.059545 -0.067412 4.137127 -0.068406 0.055620 -0.012562 -0.098709 4.106502 4.033189 0.014211 -0.068511 0.083428 -0.045543 -0.011272 -0.041255 0.060192 
0.038283 -0.087965 0.085637 -0.059911 0.008642 -0.042857 0.025782 0.067749 -0.031493 0.057849 0.013784 -0.104448 0.071225 -0.019407 0.070586 0.019040 0.088286 0.044771 -0.051928 0.006760 -0.085333 0.016672 9.122970 0.157168 -0.034471 0.027746 -0.055950 9.132571 9.092144 0.140487 0.034928 0.004667 0.036320 -0.124710 0.062191 0.007126 
0.123508 -0.009397 0.071096 -0.033610 0.059500 -0.096576 -0.003276 -0.064190 0.134760 -0.091260 -0.014851 0.078230 -0.053064 0.005570 -0.062261 0.007053 -0.094188 -0.069478 0.062744 -0.087829 0.097760 -0.078594 -2.594972 -0.077080 -0.034483 -0.030956 0.049739 -2.605023 -2.456396 -0.056930 -0.053831 -0.136965 0.069994 0.121792 -0.115098 0.063115 
-0.017188 0.164732 -0.005525 -0.016770 0.059170 -0.006522 -0.053175 0.087456 0.076449 0.018024 -0.071360 -0.002406 -0.016417 -0.086725 0.040812 0.044346 -0.171789 -0.046572 -0.051598 -0.003983 -0.008219 0.037315 -0.631028 0.027978 0.099365 0.014649 0.030646 -0.595233 -0.636721 -0.056110 -0.056218 -0.148393 -0.020823 0.141544 -0.056661 -0.025419 
0.059615 -0.015850 -0.087022 -0.063988 0.032326 0.083398 -0.070840 -0.011949 0.045694 0.013303 -0.117898 0.006855 -0.010098 0.014036 0.067895 -0.043522 -0.171184 -0.059209 -0.018321 0.084759 -0.001468 -0.003983 -3.429824 -0.001334 0.027531 0.156475 -0.086294 -3.251733 -3.384284 -0.018747 -0.049241 -0.100729 -0.022843 0.172679 -0.054537 -0.007590 
-0.003430 0.041587 0.063729 0.096142 -0.009631 -0.006931 -0.090465 -0.089398 0.011950 0.007862 -0.022333 0.064021 -0.062199 0.024809 -0.071941 -0.036015 -0.054310 -0.047005 0.008596 0.076135 -0.044163 -0.089691 -0.868206 -0.084734 -0.039555 0.054149 -0.088381 -0.825976 -0.935909 -0.129179 -0.069335 -0.043637 0.038157 0.105263 0.069631 0.010617 
-0.010969 0.039145 -0.063643 -0.024924 0.001569 0.046788 0.010530 0.097149 0.022741 -0.018484 -0.140011 0.101614 -0.034500 -0.000650 -0.027561 -0.038023 -0.151509 0.030929 0.000407 -0.006021 -0.080895 -0.032798 -8.682008 -0.116471 -0.010190 0.130554 0.018041 -8.697364 -8.823458 -0.016290 0.087555 -0.147941 0.095691 0.038019 0.017139 0.055644 
-0.014460 0.153153 0.036034 -0.083898 0.058389 0.074462 0.008717 0.093200 -0.029624 -0.015254 -0.026089 0.091345 -0.083323 -0.082891 -0.082708 0.049687 -0.089811 0.051519 0.112361 0.070269 -0.079852 -0.015757 -4.922841 -0.037818 -0.023716 0.104886 0.000366 -4.828452 -4.971880 -0.147710 -0.070299 -0.038332 0.085376 0.122708 -0.020283 -0.022587 
0.022669 0.097763 0.062740 0.092236 0.077530 -0.086084 -0.072364 0.083220 -0.040479 -0.099131 -0.062580 0.064242 0.019867 -0.046379 0.090857 0.011747 0.055219 0.013046 0.112799 -0.065392 -0.044700 -0.091040 -4.245972 0.061269 0.016532 0.059145 -0.034850 -4.177738 -4.145499 0.081303 -0.043070 -0.057029 0.077850 0.096254 -0.118741 0.074291 
0.003687 -0.118185 -0.016850 0.068072 -0.060153 0.061205 0.079609 -0.059251 -0.017375 0.022556 0.133588 -0.023644 -0.075319 0.032828 -0.080450 -0.060613 0.166146 0.085822 -0.082978 0.013822 -0.097540 0.090368 3.811310 0.057283 -0.073254 0.019740 -0.077072 3.850931 3.805410 0.030143 -0.016923 0.031459 -0.029154 -0.018121 -0.054408 -0.001065 
0.022798 -0.113240 0.085411 0.022312 -0.032277 0.023057 0.053588 0.078967 -0.054402 0.074506 0.084699 -0.085788 -0.071700 0.054711 -0.035862 -0.053111 -0.047954 -0.157065 -0.145987 0.003897 -0.099316 -0.069817 2.013533 0.032525 -0.086700 -0.055284 0.020213 1.953118 1.950859 -0.011415 -0.119331 0.015700 -0.084387 -0.094875 -0.009497 0.073650 
0.030287 -0.122094 0.048106 0.031016 0.036719 0.024320 0.083809 -0.008871 -0.054078 0.104288 -0.011999 0.076897 -0.011638 0.033518 0.001914 -0.042717 0.077780 0.129609 -0.083362 -0.082751 0.094214 0.006571 2.226407 -0.003133 0.071844 -0.117029 -0.063860 2.259544 2.242869 0.172794 -0.020597 0.086062 0.004813 -0.003399 -0.026637 -0.079760 
0.111539 0.041809 0.018852 -0.059484 -0.071156 -0.033775 -0.079484 -0.061187 0.011177 -0.099652 -0.112251 -0.000768 -0.089092 -0.005118 -0.016758 -0.085168 -0.138324 0.026155 0.060139 -0.073675 -0.072948 0.046025 -2.403490 0.075031 -0.067852 0.005902 0.103981 -2.449884 -2.393955 -0.027266 0.022843 0.041648 0.082250 0.113717 -0.006812 0.018125 
0.105698 0.019706 -0.100144 0.055473 0.044533 -0.015061 -0.026726 -0.030669 -0.049902 -0.062094 -0.096476 -0.067195 -0.084860 0.024008 0.027439 -0.086206 0.038025 -0.046475 -0.038651 -0.048015 -0.045781 0.053404 -3.210564 0.006553 -0.028153 -0.007975 -0.009973 -3.208762 -3.193826 -0.036352 0.125080 -0.058552 -0.031748 -0.003950 -0.090329 -0.038212 
0.010102 -0.154412 -0.045901 -0.070653 -0.095194 0.050841 -0.017970 0.036443 0.035358 -0.077542 0.063368 0.066662 -0.030905 0.077336 0.013828 0.088672 0.048904 -0.070503 -0.044157 -0.084533 0.097888 -0.040605 14.782519 -0.013144 0.005618 -0.059197 0.008899 14.911689 14.919890 0.012004 -0.106739 0.060106 -0.004935 -0.156821 -0.026276 0.067980 
0.021333 -0.093975 -0.025523 -0.095837 -0.028255 0.020933 -0.018691 -0.039048 -0.078125 -0.057043 -0.001763 0.036905 -0.074553 -0.045897 -0.052751 -0.011045 0.171802 -0.028619 -0.021260 0.006290 0.084661 0.040904 11.161446 0.103319 -0.098517 -0.051786 -0.015705 11.194968 11.212937 0.032145 -0.065740 0.105675 0.040928 0.001515 0.106546 0.090497 
0.011084 0.128404 -0.063333 -0.067547 -0.033472 -0.094378 0.036308 0.046732 -0.022418 -0.053965 -0.150242 0.017359 -0.069350 -0.063140 0.020658 0.092975 -0.039486 -0.018398 0.100026 -0.017869 0.091266 -0.053722 -9.799483 -0.014336 -0.044920 -0.014042 -0.059084 -9.834045 -9.977513 -0.061437 -0.063060 -0.051090 0.082165 0.060871 0.051790 0.041807 
-0.005988 0.027260 -0.066143 0.063085 -0.041761 0.071630 0.031129 -0.039025 0.073727 -0.065381 0.007827 0.057542 0.025855 0.079407 0.025047 0.027506 -0.038870 0.004120 0.051306 0.033415 0.010031 0.035447 -6.040376 -0.023004 0.072539 -0.030421 -0.082367 -6.007854 -5.969046 -0.086723 -0.023191 0.020047 0.048833 0.011456 0.039564 -0.094989 
0.051631 -0.024006 0.034433 -0.096478 0.047079 -0.001578 -0.097852 0.014798 -0.025354 0.030846 -0.079336 -0.016638 -0.072254 0.089398 -0.098755 0.000473 -0.209785 -0.149170 0.129804 0.071929 0.019895 0.087127 -5.123735 -0.120135 0.079858 0.050486 -0.022403 -5.201613 -5.164616 -0.159626 0.020652 -0.086116 0.097119 0.180156 -0.023847 -0.057250 
-0.081307 -0.021765 0.002965 -0.051244 0.063935 -0.011545 0.008498 0.087519 -0.120822 -0.078169 -0.017869 0.030341 -0.070889 -0.083612 0.014982 -0.097064 -0.024438 -0.046571 -0.097053 0.092907 0.046007 0.069366 2.120459 0.067036 0.095557 -0.165589 -0.093926 2.231027 2.280870 0.044320 0.004373 0.124226 -0.050884 -0.186479 -0.059865 -0.088965 
0.059578 0.170222 -0.097424 0.022666 0.006080 0.072625 -0.023361 -0.022490 -0.021595 0.028962 -0.144410 0.028312 -0.059129 0.055022 -0.084625 -0.021812 -0.060801 -0.011603 0.119352 -0.020334 0.037992 -0.073638 -4.065928 0.052048 0.085430 0.100952 -0.046902 -4.180418 -4.106925 0.015590 -0.048307 -0.087141 -0.022526 0.140366 0.010993 -0.029032 
0.041307 -0.157083 0.001833 0.000000 0.014457 0.000000 -0.000124 0.001110 0.047206 -0.032041 -0.083934 0.028918 -0.001207 0.000005 0.000000 0.000000 -0.200523 -0.183761 -0.147205 0.000000 0.000000 0.000000 -49.961128 -0.034898 0.000000 0.048615 -0.009675 -49.986338 -49.991520 -0.268741 0.027443 -0.072608 0.000000 -0.090770 0.025291 0.000000 
