-0.095474 -0.028764 0.002476 0.083254 0.040624 0.014872 0.088074 0.022138 -0.083882 -0.071831 -0.077732 -0.068152 -0.081901 0.097569 0.091990 0.066601 0.053465 -0.035601 0.020248 -0.011398 -0.010865 -0.052333 0.088749 0.092812 
-0.094100 0.084295 0.046069 -0.062466 0.012083 -0.006149 -0.015311 0.041572 -0.090803 -0.071819 0.053937 -0.046588 -0.067563 0.043320 -0.099429 0.046087 -0.064739 -0.076355 0.055894 -0.075920 0.029590 0.004639 -0.041688 0.048041 
0.012525 -0.050017 -0.070329 0.080801 0.038280 0.029021 0.043572 -0.004493 -0.071870 0.063995 0.007243 0.041074 0.047925 -0.022869 -0.037061 -0.090947 -0.013572 -0.001310 -0.007871 -0.047849 -0.004420 -0.010297 0.038076 -0.091081 
0.088137 0.020794 0.045850 0.047899 -0.066588 0.055839 0.101281 -0.016208 -0.062331 0.070385 0.051162 -0.027851 -0.041825 0.049834 -0.073004 -0.060444 -0.055980 0.071797 -0.060842 -0.045773 -0.096342 0.091698 0.086608 -0.093250 
0.001624 0.067796 0.060364 -0.092160 0.042602 -0.077489 0.091089 -0.071572 0.002699 0.067456 0.065003 -0.072059 -0.043417 -0.053052 0.022267 0.034130 0.030002 -0.008488 0.070372 0.013994 0.039978 -0.059468 -0.093276 -0.001478 
-0.017932 0.082775 0.023156 0.083102 0.089039 -0.073522 -0.047984 -0.067916 0.093132 0.003617 -0.076982 0.084898 -0.033260 -0.003520 -0.076735 -0.006063 -0.093213 0.021982 -0.069391 -0.050651 0.074904 0.054360 -0.063685 -0.096330 
-0.054531 0.066760 -0.072669 0.079470 0.059409 0.050975 0.008267 -0.002264 -0.037619 -0.024730 -0.065363 0.020995 0.051034 0.066046 -0.085452 0.075432 -0.062682 0.042388 -0.019827 -0.048144 0.058328 0.043446 -0.084836 0.031026 
-0.056801 -0.000229 -0.096858 -0.095242 0.061558 0.017850 -0.105286 -0.077804 0.092103 -0.026506 -0.081715 0.052209 0.061026 -0.015237 0.054493 0.093108 -0.029197 0.098377 -0.081029 0.093798 -0.090047 -0.082992 0.089797 -0.020959 
-0.005739 -0.075271 -0.042162 0.046892 0.023226 -0.070197 -0.081233 0.094953 0.010886 -0.076368 -0.094298 0.000180 -0.021907 0.010992 0.057394 0.035090 0.022106 -0.059266 -0.081526 -0.065508 -0.046320 -0.004014 -0.045953 0.076863 
-0.092661 -0.055583 -0.053863 -0.015631 -0.053131 -0.071222 0.022159 -0.010968 -0.054343 0.050034 0.070237 0.078675 -0.067720 0.001286 0.031208 -0.090546 0.077234 0.019926 0.046563 -0.096223 0.002686 -0.085055 0.085805 0.075516 
0.097969 -0.073307 -0.084614 -0.084601 -0.090077 0.098838 0.035981 0.072268 0.071453 0.068736 0.088181 0.003003 -0.002236 0.068722 0.083590 0.068315 -0.023568 -0.042041 0.042034 -0.058150 0.051841 0.037658 -0.075984 -0.027823 
0.081154 0.091865 -0.067585 0.038354 -0.012221 -0.027794 0.062161 -0.100522 0.026091 0.042863 0.007799 -0.099314 -0.073858 0.067094 -0.045876 -0.067383 0.088432 -0.080487 0.078616 0.076255 0.030941 -0.042669 -0.018607 0.046571 
-0.015545 0.044924 0.049785 0.061827 -0.098955 -0.045651 -0.015584 -0.081476 0.074065 0.073041 -0.084193 -0.013681 -0.006561 0.097831 -0.011733 -0.002172 -0.020250 0.051026 -0.027743 -0.082104 -0.002882 0.040191 -0.000191 0.012275 
-1480.220510 56.441401 1461.863724 609.487445 1320.897868 -381.605523 -93.006711 -500.817179 -131.350285 -1269.153421 -728.748256 -623.721254 569.738879 295.369234 335.697038 -361.485080 -478.570280 2033.846860 1594.343892 -1422.029709 -887.479194 -765.718301 330.826037 -613.397921 
-1480.242714 56.391696 1461.849465 609.555161 1320.981897 -381.740090 -93.159054 -500.841308 -131.367823 -1269.310806 -728.910472 -623.793402 569.834960 295.299805 335.559099 -361.386976 -478.604126 2033.827322 1594.346381 -1422.036110 -887.295367 -765.779733 330.838269 -613.245720 
-1480.112665 56.482545 1461.726269 609.559552 1320.949051 -381.777935 -93.138008 -500.881047 -131.435323 -1269.271568 -728.847031 -623.763522 569.856615 295.274812 335.661169 -361.409054 -478.496699 2033.879669 1594.249754 -1421.992161 -887.403055 -765.764278 330.815002 -613.289162 
0.027673 0.000676 -0.086335 0.011723 0.017559 -0.091120 -0.098500 -0.054982 0.015971 0.076995 -0.013778 0.059120 -0.070392 -0.002366 0.003467 0.085747 -0.040973 -0.026762 -0.044996 -0.004589 -0.054254 -0.012755 -0.061302 -0.058944 
-0.016306 -0.082482 0.057677 -0.076232 -0.039531 -0.054100 -0.010471 -0.074248 0.009415 -0.080456 -0.022428 -0.013834 -0.004868 0.000430 0.082690 -0.008609 0.081060 0.005594 0.077099 0.095386 -0.045549 0.032163 0.069359 -0.055315 
-0.008948 -0.066375 -0.093834 -0.076821 -0.091484 0.083167 -0.036478 0.072298 0.021798 -0.035007 -0.075559 -0.058685 -0.027871 0.057969 0.069076 0.040935 -0.051329 0.073997 -0.058239 0.067999 -0.071243 0.080752 0.073672 0.030194 
0.017864 0.082460 0.060460 0.052758 0.042984 0.041727 -0.041192 -0.089458 -0.007388 -0.046258 -0.012380 -0.041978 -0.059725 -0.083035 -0.048413 0.037159 -0.012539 -0.049512 0.062864 -0.021214 0.000697 -0.015770 -0.044403 0.083956 
-1480.202510 56.502658 1461.781994 609.452115 1320.982818 -381.751022 -93.174512 -500.888726 -131.418901 -1269.209510 -728.832015 -623.803932 569.905527 295.205856 335.689229 -361.417709 -478.442145 2033.846026 1594.311229 -1421.923276 -887.468413 -765.762597 330.955804 -613.343389 
1480.224492 -56.452454 -1461.868373 -609.394680 -1320.957368 381.604170 93.019707 500.862326 131.504194 1269.308197 728.836492 623.694469 -569.830694 -295.285442 -335.553974 361.430363 478.569241 -2033.869722 -1594.329201 1421.955480 887.429012 765.830875 -330.894898 613.310076 
0.077736 -0.026481 0.016354 -0.006488 -0.031060 -0.026604 0.078704 0.016401 -0.056485 0.022623 -0.031500 0.081861 0.104722 0.035461 0.063002 0.066466 0.096155 -0.056083 0.088508 0.036417 -0.088448 0.025019 0.047803 -0.027136 
0.059756 0.078783 -0.071446 0.095742 -0.077232 0.086231 -0.034720 -0.022480 -0.083192 0.063659 -0.046927 -0.082722 -0.094254 0.082487 0.078311 0.089368 0.043559 -0.035644 0.083751 -0.078557 -0.085416 0.103879 0.091147 -0.080759 
-0.039223 -0.075516 0.076051 -0.069555 -0.056938 0.058537 0.106115 0.065557 0.065938 0.056114 0.096659 -0.014563 0.067626 0.030052 -0.078155 -0.056678 -0.023417 0.058808 -0.016858 -0.042508 -0.020936 0.072105 -0.080981 -0.007950 
-0.055268 -0.060329 0.066626 0.057692 0.079696 -0.018423 -0.019548 -0.088508 0.026101 0.088206 -0.064797 0.023820 -0.076454 0.008194 -0.080424 -0.011046 -0.094341 0.008403 -0.060158 0.016993 -0.062954 -0.003583 0.027142 0.084947 
-0.057869 0.049907 0.079731 0.034046 -0.033749 0.006858 -0.037540 -0.010016 0.005715 0.024663 -0.059745 0.086674 -0.088688 0.082359 -0.065925 0.066247 -0.055706 0.054557 -0.008415 -0.080510 0.016546 0.034120 0.009773 0.010552 
-0.061170 0.095842 -0.069474 0.040616 -0.041406 -0.042459 0.072248 0.016352 0.098150 0.053973 -0.097621 -0.095418 -0.028421 0.018547 -0.086507 0.050823 0.101479 -0.035239 0.009375 0.026635 -0.078214 -0.035092 -0.074944 0.036006 
-0.078973 -0.044444 0.091241 -0.082623 -0.079656 0.075744 -0.012247 0.007041 0.058434 0.009561 -0.088165 -0.055101 -0.004184 -0.095642 -0.094519 -0.099634 0.087176 -0.017130 -0.032701 -0.019248 -0.093695 0.068224 -0.022459 -0.043754 
-0.073867 -0.085303 0.015251 -0.041316 -0.049692 0.006602 0.028953 0.041645 -0.021313 -0.059861 -0.047275 0.102159 0.089748 0.063053 -0.051533 0.026823 -0.076074 0.095183 -0.093647 0.077466 0.023932 -0.048823 0.067441 -0.084214 
0.087680 -0.072613 0.070301 0.071566 0.065002 -0.069823 -0.036289 0.057002 -0.059974 -0.013266 -0.007985 -0.037518 -0.051199 -0.055810 0.052047 0.038848 0.019065 -0.073548 0.048606 -0.033182 0.010473 0.056960 0.017054 -0.018264 
-0.080545 0.021534 -0.012935 0.093791 0.080196 -0.062903 -0.045783 0.052618 0.062668 -0.094130 -0.094499 0.029670 0.043849 0.035282 0.097661 -0.069688 0.021545 0.001524 -0.040877 -0.045055 -0.090177 0.070707 -0.087632 0.005821 
0.072866 0.037328 0.010451 0.004749 -0.085358 -0.010380 0.057115 -0.094607 0.079261 0.005545 0.050998 0.082661 -0.084279 0.036535 0.010406 0.070573 -0.045982 -0.057639 0.043346 -0.016557 -0.085121 0.018470 0.074916 0.041122 
0.003021 -0.093438 0.006496 -0.057008 -0.069476 -0.089050 -0.057610 -0.091098 0.079011 -0.095075 -0.059906 -0.079814 0.067490 0.081397 0.099642 0.001583 -0.005612 -0.084941 0.059173 0.081541 -0.052705 -0.010291 0.022388 0.017482 
-0.055202 0.007853 -0.096125 -0.093136 0.081724 -0.102576 0.018149 -0.067665 -0.077103 -0.054784 0.065678 0.080878 -0.047638 0.094679 -0.023652 -0.019871 0.038237 0.050762 0.072864 -0.008879 0.042501 0.007196 -0.001862 -0.066431 
0.093570 0.095916 0.005534 0.028596 0.059375 -0.010586 -0.074376 0.094485 -0.033044 0.074750 0.102809 0.075309 0.037891 0.035745 -0.034479 -0.007809 0.052629 0.075194 -0.032622 0.088349 0.090719 -0.062404 0.009730 0.053760 
1480.161340 -56.453959 -1461.774580 -609.475258 -1320.920078 381.696345 93.103526 500.849359 131.417762 1269.217749 728.818721 623.744186 -569.823062 -295.279274 -335.622436 361.415809 478.525565 -2033.793527 -1594.272495 1421.953847 887.395457 765.758354 -330.854812 613.303872 
0.078152 -0.020132 -0.068067 -0.040733 -0.041254 0.038102 0.060565 -0.017765 0.056267 -0.094832 -0.105908 -0.058779 0.004500 0.047868 -0.091314 -0.016599 -0.094945 -0.052732 -0.045907 0.000455 0.092480 0.038884 -10.308945 -0.006257 0.058489 0.122936 -0.076158 -10.357235 -10.265103 0.032633 -0.011087 -0.090174 -0.048131 -0.085406 0.084478 0.093597 
0.029267 0.092199 -0.063253 -0.025248 -0.081595 0.026762 0.064438 0.030510 -0.031794 0.056860 0.153583 0.057483 -0.025729 0.043113 0.053764 0.089563 0.036339 0.015087 0.024427 0.080779 0.068273 0.042277 0.364442 0.011518 -0.074413 0.012186 -0.025716 0.439949 0.325176 -0.040214 -0.035649 0.004660 0.038548 0.010758 -0.055272 -0.062835 
-0.066060 0.092351 0.044325 0.027256 0.041871 -0.083355 -0.018969 0.010124 -0.049798 0.025492 -0.002862 0.040970 -0.069901 -0.025608 0.056047 0.086798 0.033982 -0.046680 0.005556 -0.092041 -0.002298 -0.095978 10.220387 -0.032600 -0.018406 0.006588 -0.097096 10.198149 10.095471 0.098907 0.012888 0.014604 -0.092865 -0.022666 0.037571 0.018802 
-0.058717 0.052665 0.045104 -0.003818 0.055409 0.058995 0.057590 0.013786 -0.019132 -0.037572 0.024826 -0.068792 -0.039285 0.034093 -0.030601 -0.091180 -0.007058 -0.044339 -0.026199 0.095264 -0.059545 -0.067412 4.137127 -0.096560 0.055620 -0.012562 -0.098709 4.106502 4.033189 -0.025596 -0.068511 0.083428 -0.045543 0.079498 -0.066546 0.060192 
0.038283 -0.011882 0.085637 -0.059911 0.008642 -0.042857 0.025771 0.067749 -0.031493 0.046622 0.005879 -0.104448 0.045166 -0.019407 0.070586 0.019040 0.006348 -0.016619 -0.001585 0.006760 -0.085333 0.016672 9.122970 0.026716 -0.034471 0.027746 -0.055950 9.132571 9.092144 0.005606 0.034928 0.004667 0.036320 -0.033940 0.036900 0.007126 
0.123508 -0.097527 0.071096 -0.033610 0.059500 -0.096576 -0.003273 -0.064190 0.134760 -0.086725 -0.014785 0.078230 -0.028533 0.005570 -0.062261 0.007053 -0.058426 -0.059955 0.005367 -0.087829 0.097760 -0.078594 -2.594972 -0.003144 -0.034483 -0.030956 0.049739 -2.605023 -2.456396 0.030235 -0.053831 -0.136965 0.069994 0.031022 -0.089807 0.063115 
-0.017188 0.082410 -0.005525 -0.016770 0.059170 -0.006522 -0.053159 0.087456 0.076449 0.021616 -0.068694 -0.002406 0.011031 -0.086725 0.040812 0.044346 -0.134303 -0.026132 -0.107042 -0.003983 -0.008219 0.037315 -0.631028 0.118552 0.099365 0.014649 0.030646 -0.595233 -0.636721 0.027696 -0.056218 -0.148393 -0.020823 0.050774 -0.031370 -0.025419 
0.059615 -0.097173 -0.087022 -0.063988 0.032326 0.083398 -0.070841 -0.011949 0.045694 0.011420 -0.124741 0.006855 0.013466 0.014036 0.067895 -0.043522 -0.156555 -0.054833 -0.074601 0.084759 -0.001468 -0.003983 -3.429824 0.064717 0.027531 0.156475 -0.086294 -3.251733 -3.384284 0.043028 -0.049241 -0.100729 -0.022843 0.081909 -0.029246 -0.007590 
-0.003430 -0.041935 0.063729 0.096142 -0.009631 -0.006931 -0.090465 -0.089398 0.011950 0.021962 -0.014225 0.064021 -0.038177 0.024809 -0.071941 -0.036015 0.029405 0.005936 -0.043897 0.076135 -0.044163 -0.089691 -0.868206 0.033424 -0.039555 0.054149 -0.088381 -0.825976 -0.935909 0.008567 -0.069335 -0.043637 0.038157 0.014493 0.094922 0.010617 
-0.010969 -0.048704 -0.063643 -0.024924 0.001569 0.046788 0.010546 0.097149 0.022741 -0.008372 -0.131852 0.101614 -0.007384 -0.000650 -0.027561 -0.038023 -0.100921 0.059903 -0.055438 -0.006021 -0.080895 -0.032798 -8.682008 -0.017103 -0.010190 0.130554 0.018041 -8.697364 -8.823458 0.073376 0.087555 -0.147941 0.095691 -0.052751 0.042430 0.055644 
-0.014460 0.069317 0.036034 -0.083898 0.058389 0.074462 0.008733 0.093200 -0.029624 -0.015276 -0.026834 0.091345 -0.056000 -0.082891 -0.082708 0.049687 -0.074919 0.056078 0.055200 0.070269 -0.079852 -0.015757 -4.922841 0.035908 -0.023716 0.104886 0.000366 -4.828452 -4.971880 -0.093292 -0.070299 -0.038332 0.085376 0.031938 0.005008 -0.022587 
0.022669 -0.001376 0.062740 0.092236 0.077530 -0.086084 -0.072361 0.083220 -0.040479 -0.105645 -0.072313 0.064242 0.044418 -0.046379 0.090857 0.011747 0.022718 -0.041967 0.047331 -0.065392 -0.044700 -0.091040 -4.245972 0.067806 0.016532 0.059145 -0.034850 -4.177738 -4.145499 0.087359 -0.043070 -0.057029 0.077850 0.005484 -0.093451 0.074291 
0.003687 -0.034893 -0.016850 0.068072 -0.060153 0.061205 0.079612 -0.059251 -0.017375 0.011762 0.129602 -0.023644 -0.098393 0.032828 -0.080450 -0.060613 0.098770 0.043430 -0.029697 0.013822 -0.097540 0.090368 3.811310 -0.047914 -0.073254 0.019740 -0.077072 3.850931 3.805410 -0.088452 -0.016923 0.031459 -0.029154 0.072649 -0.079699 -0.001065 
0.022798 -0.006046 0.085411 0.022312 -0.032277 0.023057 0.053592 0.078967 -0.054402 0.080342 0.095734 -0.085788 -0.094670 0.054711 -0.035862 -0.053111 0.004904 -0.084837 -0.077430 0.003897 -0.099316 -0.069817 2.013533 0.046547 -0.086700 -0.055284 0.020213 1.953118 1.950859 0.016282 -0.119331 0.015700 -0.084387 -0.004105 -0.034788 0.073650 
0.030287 -0.036925 0.048106 0.031016 0.036719 0.024320 0.083824 -0.008871 -0.054078 0.092059 -0.014437 0.076897 -0.032315 0.033518 0.001914 -0.042717 0.004274 0.086921 -0.029941 -0.082751 0.094214 0.006571 2.226407 -0.104104 0.071844 -0.117029 -0.063860 2.259544 2.242869 0.043089 -0.020597 0.086062 0.004813 0.087371 -0.051927 -0.079760 
0.111539 -0.051511 0.018852 -0.059484 -0.071156 -0.033775 -0.079490 -0.061187 0.011177 -0.097379 -0.116640 -0.000768 -0.066620 -0.005118 -0.016758 -0.085168 -0.129248 0.015297 0.000051 -0.073675 -0.072948 0.046025 -2.403490 0.123691 -0.067852 0.005902 0.103981 -2.449884 -2.393955 0.020835 0.022843 0.041648 0.082250 0.022947 0.018479 0.018125 
0.105698 -0.070476 -0.100144 0.055473 0.044533 -0.015061 -0.026718 -0.030669 -0.049902 -0.066612 -0.103031 -0.067195 -0.059094 0.024008 0.027439 -0.086206 0.016040 -0.072737 -0.099769 -0.048015 -0.045781 0.053404 -3.210564 0.045259 -0.028153 -0.007975 -0.009973 -3.208762 -3.193826 -0.030381 0.125080 -0.058552 -0.031748 -0.094720 -0.065038 -0.038212 
0.010102 -0.053704 -0.045901 -0.070653 -0.095194 0.050841 -0.017974 0.036443 0.035358 -0.074744 0.069581 0.066662 -0.055661 0.077336 0.013828 0.088672 0.075376 -0.024415 0.020865 -0.084533 0.097888 -0.040605 14.782519 -0.029700 0.005618 -0.059197 0.008899 14.911689 14.919890 0.007566 -0.106739 0.060106 -0.004935 -0.066051 -0.051567 0.067980 
0.021333 -0.008866 -0.025523 -0.095837 -0.028255 0.020933 -0.018688 -0.039048 -0.078125 -0.062540 -0.001034 0.036905 -0.097667 -0.045897 -0.052751 -0.011045 0.134041 -0.048686 0.034395 0.006290 0.084661 0.040904 11.161446 0.021382 -0.098517 -0.051786 -0.015705 11.194968 11.212937 -0.050310 -0.065740 0.105675 0.040928 0.092285 0.081256 0.090497 
0.011084 0.028185 -0.063333 -0.067547 -0.033472 -0.094378 0.036315 0.046732 -0.022418 -0.057874 -0.156711 0.017359 -0.043908 -0.063140 0.020658 0.092975 -0.074883 -0.066858 0.034840 -0.017869 0.091266 -0.053722 -9.799483 0.001166 -0.044920 -0.014042 -0.059084 -9.834045 -9.977513 -0.071203 -0.063060 -0.051090 0.082165 -0.029899 0.077081 0.041807 
-0.005988 -0.058531 -0.066143 0.063085 -0.041761 0.071630 0.031121 -0.039025 0.073727 -0.070109 -0.003377 0.057542 0.047873 0.079407 0.025047 0.027506 -0.043182 -0.012078 -0.007607 0.033415 0.010031 0.035447 -6.040376 0.018647 0.072539 -0.030421 -0.082367 -6.007854 -5.969046 -0.045006 -0.023191 0.020047 0.048833 -0.079315 0.064855 -0.094989 
0.051631 -0.104229 0.034433 -0.096478 0.047079 -0.001578 -0.097844 0.014798 -0.025354 0.039889 -0.074147 -0.016638 -0.046771 0.089398 -0.098755 0.000473 -0.149847 -0.105016 0.077109 0.071929 0.019895 0.087127 -5.123735 -0.008472 0.079858 0.050486 -0.022403 -5.201613 -5.164616 -0.054094 0.020652 -0.086116 0.097119 0.089386 0.001444 -0.057250 
-0.081307 0.066575 0.002965 -0.051244 0.063935 -0.011545 0.008492 0.087519 -0.120822 -0.077501 -0.014106 0.030341 -0.096056 -0.083612 0.014982 -0.097064 -0.036954 -0.037707 -0.037925 0.092907 0.046007 0.069366 2.120459 0.011384 0.095557 -0.165589 -0.093926 2.231027 2.280870 -0.015513 0.004373 0.124226 -0.050884 -0.095709 -0.085156 -0.088965 
0.059578 0.075592 -0.097424 0.022666 0.006080 0.072625 -0.023373 -0.022490 -0.021595 0.032649 -0.148826 0.028312 -0.037793 0.055022 -0.084625 -0.021812 -0.044213 -0.021002 0.059219 -0.020334 0.037992 -0.073638 -4.065928 0.100033 0.085430 0.100952 -0.046902 -4.180418 -4.106925 0.075329 -0.048307 -0.087141 -0.022526 0.049596 0.036283 -0.029032 
0.041307 -0.016949 0.001833 0.000000 0.014457 0.000000 -0.000182 0.001110 0.047206 -0.009312 -0.081825 0.028918 0.010161 0.000005 0.000000 0.000000 -0.057286 -0.037063 -0.017843 0.000000 0.000000 0.000000 -49.961128 0.030808 0.000000 0.048615 -0.009675 -49.986338 -49.991520 0.000000 0.027443 -0.072608 0.000000 0.000000 0.000000 0.000000 
