0.02788535969157674 -0.09499784895546662 -0.04499413632617615 -0.05535785237023545 0.04729424283280248 0.03533989748458227 0.0784359135409691 -0.08261223347411678 -0.015615636062945915 -0.09404055611238593 -0.05627240503927933 0.001071057620672472 -0.09469280606322728 -0.06023246986267031 0.029976887555904635 0.008988296120643335 -0.055911875591860664 0.017853136775181744 0.06188609133556533 -0.0987002480643878 0.06116385036656158 0.03962787899764536 -0.03194989669640162 -0.06890410003764369 0.09144261444135623 -0.03268109097747465 -0.08145083132397042 -0.0806567246333072 0.06949887326949197 0.02074520627337821 0.06142565465487604 0.045946357338763566 0.007245618290940142 0.09462315279587413 -0.0242931245583293 0.010408126254645406
0.06588093285059898 0.023703950472849206 0.07234138006215546 0.015470429051352402 0.040914367242984695 -0.09083512326886756 -0.054420344869690634 -0.04212240727957857 -0.0840416046152745 -0.053441822727793964 -0.07979971411805419 -0.04440527937798158 0.027136888852880042 -0.027033564205983157 -0.025963806576623477 -0.05809859384570246 -0.04660443559017733 0.0873309175424988 0.029607077049318697 0.021826201133397644 -0.06577227036038061 0.045825359590069836 -0.06731950124761432 -0.02410891164847044 0.09790467012731904 0.02799995197081856 0.011389948754929241 0.03692285019797492 0.06857038403796192 0.05519998230924897 -0.05419038560717913 -0.09357995121919245 -0.036909390388183624 -0.04645182480485946 -0.05780343128273471 0.0885819428670109
0.07527352529453377 -0.03706442384030442 0.031087733058975997 -0.020873619787867143 0.08290951794810872 -0.008229629482520234 -0.04702396670038951 -0.05067449846120331 0.012273626832630155 -0.04745167829541295 0.016917198044708107 0.07956457672049541 -0.02011989897192054 -0.056135848168543334 0.09950752129902204 0.001905258735292903 -0.08181811756524122 -0.09057672491505309 -0.07807017392986818 0.02548920834061802 0.05841587287259284 -0.015568006640063192 -0.08729445876960858 -0.023676142698692643 0.09922427604801937 0.005822869019827398 0.09421567552272364 0.07215594044689963 -0.09770379561143608 0.04414436387203893 0.036342073805314956 0.007394066081759035 -0.046634962009491444 0.028192359715961623 -0.07768956528082471 -0.013046949866179006
-0.009255258734158708 0.09076318550421603 0.07517058807563881 -0.04732218984978185 0.00011722261005966961 -0.06426962389397373 0.08252556786896412 0.07410371396735338 -0.04031104171027342 0.027789898973201027 0.021794042287634457 -0.06943214629007305 0.05250216001503025 0.007875806023925153 0.05572529572611165 0.006070734439035497 -0.09988562077441131 -0.03516878859906539 -0.09610465152283354 0.08581972325292342 0.07574437556463684 0.0663331058722359 -0.03849717491946772 -0.0884149667011625 0.07560191984080811 0.08938988905959883 -0.08286930958642424 -0.002801907336677248 -0.08615749630632329 0.05212043305144631 0.05316688586139756 -0.07432170710004744 -0.004943524380253736 0.009960718698988777 -0.046988674211988185 0.0744866082170515
-0.015372411959822613 -0.05764035891158359 0.00785921775589167 0.045986213817995225 -0.05976978732206082 -0.03765674173982101 0.09902987133217894 0.02997561152789069 -0.012379983217099183 0.0035151682071181273 -0.07579916082634686 -0.05506053259368853 -0.03238288757050893 0.017661743691446657 -0.0539770534806846 -0.05595652310968811 -0.08580138279819349 0.02622059145401978 -0.05421164323776913 0.08108400260122559 0.0719270800507493 -0.08582853002226931 -0.05239907312620096 0.03379555565925613 -0.057152638525912285 -0.073537630254995 0.0871028481161342 0.01420861866505689 -0.005465794737641166 0.05692388485815067 0.0614993995533287 -0.06191801712762446 -0.08061383715423534 -0.01378976351872449 -0.015284275396015845 -0.006595066392665008
0.045815169891970126 0.034672909458660306 0.09683304227319323 -0.08031642576960824 -0.019475743579546248 -0.03213947892100737 0.07233450727055821 -0.05026873321594288 -0.061958218311837704 -0.010277290433373623 -0.015623672033119165 -0.04429097106661191 -0.05003871042357991 0.08465311985520257 -0.011373850989308612 0.07226982095236612 0.010065062489969606 -0.08988233409502376 0.09985649368254532 0.0672055170159904 0.09379925145695026 0.08527339660162553 0.06973914688286109 -0.0667377778792172 -0.002871774909856309 -0.05725054016016367 -0.019791941490109474 -0.08827292000556422 -0.024205376204616783 0.09706176875594519 -0.046959388365569614 0.05681412038971387 -0.008998326532171336 -0.015398502801967417 0.09146352817193465 0.09908453789854277
0.011153664681123637 0.04368165505926519 -0.06904063494518718 -0.04065843490108716 0.09374187299383177 0.015836058163251246 0.008439040274854842 0.049595112075812825 -0.08856694541850339 0.016835518891794243 0.0005700765839027067 0.07054397840965707 -0.06851345441210335 0.09215578065489008 -0.08397770695188263 -0.06283500780385537 0.019007021290005532 0.03504251072081804 -0.05295922099981376 -0.07602267721057517 0.07805746282588752 -0.05075693044227503 0.018903830706688246 0.02387630206642062 -0.016155016932825506 0.01673445785824494 0.0045565431063917805 0.08694125154728546 -0.05914816011529272 0.04323836015788296 -0.0522628094768308 -0.020842830641749105 0.03433804459199424 -0.04000058404024756 -0.0367645607456292 0.05037289848288043
-0.08549137710136855 -0.00834289547628278 0.09969088817088848 0.09921928957101889 -0.08534785578007341 -0.057369137546591925 -0.04695991704991973 0.08665187559874182 0.07617283473728792 0.07585404849690855 -0.026094582252223206 -0.0684506335285536 0.06674899092796141 0.04070798501747419 0.02233555314519002 0.09744661272630087 0.03079526354214651 -0.09843537856956841 0.06342082702309235 -0.040124249560004425 0.032677742993215464 0.08778600078542079 -0.07314177712132647 -0.07691426591617956 -0.07859280445811648 0.010644728176963186 -0.04553035753703674 0.020965965406044784 0.043522437427759575 -0.05928053753450942 0.026847591777015956 -0.04720321967391812 -0.002293629570124689 0.08106729821586464 0.0692207426589711 -0.08154030645745332
-0.015284845487254728 -0.044663955205549666 -0.09929086218244354 0.05422384460392543 0.027422675460275936 -0.04760894751313036 0.04824618166958616 0.01033608422527825 -0.014462616203864131 -0.09806606007833202 -0.0849512279852466 0.0766212786600286 0.08078571431197865 0.009118057841104463 0.06691900397720335 0.016501913297958803 -0.07038124288650348 -0.07451089614357226 -0.03834833001397327 0.07979629774851801 0.059224460977608334 0.07214051640018057 0.07978492730529493 -0.0579846923320492 -0.05009405215541512 -0.07944127566564288 0.05602324837428854 0.07682694029020179 -0.018724522033576635 0.024132302030142563 -0.06908933233355907 0.08597620313873489 0.0729211392439928 0.09524120658619259 0.06215434398807937 0.07628324093266489
-0.09504272762036226 0.04731289435101643 -0.03356290641071427 0.08616317720966513 0.060447027787427804 0.07281280567505588 0.06214986331487779 -0.0466388580811056 0.05747490182709422 -0.07838087471940858 0.07443335658121794 0.07171865026755633 -0.055513256490867115 0.06331732111938579 -0.00793935306421159 -0.03896182653227989 0.059069099830572375 -0.05448090251844593 -0.0952671130597097 -0.06137404233445827 -0.0343476097604587 0.07287058840605729 0.09337782080967225 -0.04417500145562572 0.028296347721525533 -0.020064323127987824 0.09622993743965202 0.007243146495744382 0.08784742806494314 -0.0769316496297145 0.09408012220444559 -0.06428643676550727 0.0925068631523111 -0.04690672749540628 -0.07831949055705778 -0.013087248287071127
0.04570901213054085 -0.037264537161001754 0.02124177066122865 0.0022846119338956195 -0.022960913331054572 0.015317608699319904 -0.049055498772283615 0.04175705676683411 -0.09966174435627412 0.08511503309981655 0.007690399418558383 0.0438859998289691 0.048390015567895295 0.034125700886599886 -0.02715570564374717 -0.08600523777473797 0.032847536982254455 -0.03395999279148072 -0.03721687098832807 0.06960305590126711 0.043950852602790025 -0.03993554635774717 -0.03814306755826935 -0.01832141827615663 -0.01951992258845507 -0.0408689594948106 -0.07454244018816936 -0.015910733245418335 0.08807273414603661 0.03546358905454658 0.08056110914651654 0.023102983190276108 -0.03981002508688694 0.009587442627139647 -0.0999188120605425 -0.042617256626214566
-0.014022370002033074 0.015996956239136398 0.030941124740614334 -0.007002361950597155 -0.011568040139038518 -0.05725971980217995 -0.0053627628181347475 0.08023616516565085 0.059204952025356056 -0.06606172076038905 -0.08304089265497566 0.003090401983043292 0.026588171153159146 -0.03296234891803983 0.06368469290733286 0.05022762750814644 0.03455913411143341 -0.05507186680054235 -0.06017401345468468 -0.09511492245463474 -0.05103149118432997 -0.004972731156238974 0.0699475389249464 -0.08543435416308619 -0.01711179780045613 0.025953076147542747 -0.06111295265205814 0.039270850098100996 -0.0011245661979126104 -0.05120311208431223 0.031211602222356805 -0.09889103637239366 0.050192895323694586 0.05400923771480501 -0.07868254068729222 -0.014970761211453174
-0.06482266365869367 0.09159320845590796 0.0035915500887481605 -0.08995632297187182 -0.05016034406800567 0.06966726947033194 -0.008707634905965489 0.06028332034445291 0.03351554651727062 0.0975784906132896 0.01909046369388394 0.0900079216886312 0.0782851851620874 0.022530464552352567 0.043854792255193425 0.0009556329648803957 0.06611383394428302 0.009574390122165682 0.07944162064665244 0.04873108843191698 -0.005065112635389335 -0.04816169030699613 -0.050552052498068094 0.02753228735523125 0.053162736859433096 0.004259962565596423 0.025349687396356263 -0.04508051061649235 -0.08450332922705284 -0.0428543698273695 -0.04565697858356308 -0.036058086316247545 0.00803044450369128 -0.07232518769676886 -0.05374770405436265 0.03878996245981045
0.04128382833891045 -0.08715422985722439 -0.01848012606668266 0.00852222810078307 -0.016845153179368813 -0.058633122097117955 -0.015971296445314878 0.08096769566803538 0.016815882840845037 0.03910459729959362 0.07134640646078685 0.053118915223613894 -0.023923794214457672 -0.09882078328320139 -0.029648239465635065 0.05069502501187717 0.07068959011382092 0.09068606769402127 -0.01619574347403563 0.049503133795610166 0.009226461946767822 0.020650517788248265 -0.055892261135236224 -0.056115673075712774 -0.012832804790672683 -0.09419503601065696 -0.03277409126032352 0.03582837700566993 -0.01913666617247259 -0.06699105375929823 -0.006521970153537976 -0.07447444054376787 0.024451392194812932 -0.09460670961897247 -0.02119594873205906 0.012878396604954823
-0.09457959073193752 0.02854992960186714 -0.07286010255388715 -0.0076603111896976495 -0.0899430733022745 -0.024179227162372086 -0.0576679431577037 -0.0346308390237383 0.05224594157880544 -0.024174756887172744 0.05040196471095698 0.06638485703105454 -0.04954569364352388 -0.0836187534476715 -0.09612334258999787 0.00788380958450674 0.09998156570184186 -0.030007931255963224 0.030028818649975003 0.056246609922178975 0.030350931048777896 0.050846640811905236 0.08992234654319778 -0.06012786352749342 -0.09592399653593353 -0.06952353084304193 -0.07475580502515876 0.03389176892398213 0.012793916386003829 -0.056407091818699275 0.03989299424923015 0.05337961967124816 -0.06644217132643955 0.021449498778186332 0.049585130391057164 -0.07709342572422047
0.06386023486221701 0.09294415460681754 -0.0783802500684787 -0.0948643149005068 -0.037608551121060964 0.03546945737008175 0.0916345676411792 -0.02066911169667454 0.043002941009893686 -0.08480070443138801 0.03812288318659607 0.025448479120208894 -0.0796197389108047 0.05449617699024481 0.07005864781775925 0.02008232296336883 -0.07578898698653698 0.09676887030293427 0.05652706927220394 -0.030559246938310206 -0.014324397353051105 -0.025885824756388773 0.0011921579354155776 -0.031753765027743366 0.06991512539991548 0.06446618361801162 -0.07889222587120029 0.09215751344291573 0.027117021220289195 0.06574146220049165 0.0414617287412154 -0.012902570998464591 0.04675906080267839 0.09309474624761555 -0.045983520722519836 0.061639843761351204
0.007634581289651152 -0.0033004992233607727 -0.012885101399221138 0.046205242861024454 -0.04632089239015494 0.07034263200386637 0.0661462037781207 -0.08266742038886513 0.07632623680055439 -0.051227312161808806 -0.007058306679353657 0.02206634084610412 -0.024202139174347187 -0.0942600004459821 0.07019056726249182 -0.06363202856846165 -0.0575760299640522 0.059566471365619295 -0.03193223136714328 0.07606399595164509 0.04023675006644031 -0.04474628484876302 -0.09796977711226458 0.08961251555540625 -0.08287740760839575 0.04401493282083885 -0.002284430630242529 0.0516329306964933 0.038121867889304606 0.029180579948190455 -0.001835732984282773 0.058586573626463495 -0.08138932988906566 -0.055680719905493975 0.03835743105904038 -0.038758793973982325
0.016311117066473438 -0.005347902248095046 0.006184386229153557 -0.014899237458957049 0.049187087342721925 -0.033841740560813974 0.04057098843715379 -0.045816714604760736 -0.0497192647598117 -0.07586882304953885 -0.06148314130969652 -0.07608905174898944 0.007172793076749964 0.05243792189682059 -0.0629700315124676 -0.05672307202427887 -0.0031602825574582605 0.04491700021861031 0.09532140457661137 0.004927373821721565 -0.043400259345009 -0.07989477838184185 -0.061176484381785315 -0.054503367303489064 -0.06411169126291934 -0.09717032654878724 0.006827017853532652 -0.04513773464334654 0.09485898622054759 0.010671793359721654 0.03948347858203888 -0.07474410140831822 0.07369223945258882 -0.0018242610952442229 0.07454394699970693 0.014812843925266453
-0.006120611013897964 -0.011906240372797944 -0.06312726592198366 -0.08972465656328443 0.08821271935362066 -0.004454162546862456 0.06442312905988609 -0.019858511549612046 -0.08518356594887205 0.02588914139039966 -0.08927818514149338 -0.07016048310526897 0.012567919416912848 -0.039232897631554464 0.09878362454204404 -0.07630968755770769 0.05288868906523886 0.021263530248592552 0.058148165968683885 -0.05486257258699308 0.004514507026043571 -0.00989710702224915 -0.011455799196134334 0.07203333316523602 0.09800625209335959 -0.03892395113612793 0.024205464214429706 0.02192618244902607 0.048017861096909004 0.0895180400650756 -0.058442418835289736 -0.057794960938921405 0.032085627438407316 -0.06858858132382457 -0.06523729033471311 -0.08498702621976642
-0.09946485547942285 -0.009899259076459527 0.01876223902391265 -0.04174814219379448 -0.053704753088794834 0.041391165975806665 0.04059751161874342 -0.009193734718591348 0.03747698401424854 0.08478220889650975 0.057565605329346264 0.025011601432844366 0.032236608570673564 0.08673369168910267 -0.01497220677915767 0.008912475742115733 0.02952694468049616 0.08168228904252123 0.06532623193001194 -0.08571803262883718 -0.06681544215585507 -0.03847763747715349 0.049791544413924665 0.013841409863818474 -0.04227788233883165 -0.07512926836505836 0.03773559824241873 0.03994673699514345 0.08853524814880817 9.443542358511525e-05 -0.0012409561309831424 -0.08391162962013982 -0.09202784316327739 -0.01359426716784548 -0.035535683328340006 -0.04992641951759922
-0.08173462267380296 0.09238222043856734 0.06719172278123628 0.015039821843986084 0.0901572555612705 0.09991448337549028 0.034456316860647845 -0.04609779480658922 -0.09195366537107677 0.05125376608251142 -0.0058998353496732825 0.03030189788673726 0.08321455758535351 -0.06370217055537482 0.017065925055570877 0.026956943890817375 -0.0016548395617973222 -0.08175151874123457 -0.030407788741069905 -0.033338321266981594 0.034026701904237094 0.07154661888007052 -0.03403926728420692 0.03873473479668649 -0.04235644092770885 0.08903870791264212 0.06271320694759452 0.010019321794356578 -0.009034818279654105 -0.03709656856596642 -0.03534524274480107 0.09403694536171545 -0.01916498859985087 0.002919250465821019 0.09762384295635082 0.0315320772966258
0.008518718871438999 -0.017350485840135696 -0.062483491721094575 -0.027644128169664953 0.05128863081111476 0.025081748429001793 0.05199810721220341 -0.059288352329945226 0.009843927817066334 0.08553455216888955 -0.012376780985524347 0.03965000582443445 -0.07571478332747604 0.09462936316433887 0.021774333416392982 -0.05214050753446993 -0.06832436723895352 0.010167801400533999 0.010450281810746614 -0.0813581597436955 0.09845142787904393 0.0825859756968336 -0.007710421164243322 -0.0765067701820885 0.06642863475378025 -0.00032489905856095125 0.04332066519835823 0.0017744030139023453 -0.04531502065734516 0.06694478911533888 0.0960489265206751 -0.05125381878497233 0.010253015376093938 -0.02328279735057001 0.08437362998631237 0.0016481783185788024
0.07586525102929523 0.07280538688571764 -0.04475051943559181 0.058001236400622685 -0.017011515289730966 0.08684967873650404 0.0015475351619312905 0.06410989463711567 -0.04343220334343467 -0.04028883004564657 0.017387544482832223 0.09978046664586776 -0.0020719306688598005 -0.07028091632344219 0.00771611554077474 -0.030975211661398494 0.010383483414162203 0.008686012591734599 -0.008931076626699785 -0.035644529954192525 -0.06226952525857892 0.03949968552411426 0.014359528396980223 -0.05328751078842138 0.05510889501985178 -0.09127054018053962 0.048941030313039174 0.04104557620500052 0.062281780512975365 -0.022784249501803536 0.03273776589690694 0.06414951034191102 0.09616362773195702 -0.0009342700767152878 -0.09259607773088477 0.000458230026593176
0.01803608586191341 0.0739400626724431 0.07483807481086166 -0.01193875804586457 0.005190217361512289 -0.008614385105151556 0.04448876551412853 -0.018004276050727117 0.030956265285546763 -0.06912775624569023 -0.006101879803053614 0.09384072611484345 -0.032287753189713664 0.038540919717376415 0.029967330515854512 0.07035305847013829 0.07046826731317862 0.07186843683365332 -0.023998120495468983 -0.03666776921332007 0.0437434850445966 0.051880361866872726 0.07447660347970728 -0.09282018003246269 -0.08631585056368972 0.026232203370928103 0.08418581975605935 0.09948518459124309 0.04935327334758538 -0.01320570561537486 -0.08031137472336042 0.02674956575615825 0.07451584652141816 -0.011264289667658842 0.0388002325586469 0.0806848124100972
0.0 0.0 0.0 0.0 0.0 0.0 0.0 0.0 0.0 0.0 0.0 0.0 0.0 0.0 0.0 0.0 0.0 0.0 0.0 0.0 0.0 0.0 0.0 0.0
-0.09080180626455746 0.05922869303244235 -0.04132644480695824 -0.025031782044937043 -0.07088604086012032 0.006233263629752003 0.013185612383187356 0.05850389477619064 -0.06600327018638052 -0.08420632986800108 0.07416791972897097 0.023942073707483066 -0.05183404162873739 0.08256580320471096 -0.07137645597429808 -0.007770017329000484 -0.04920453211729155 -0.048934658368169195 -0.0981205137090258 0.06092661539502928 0.08024188471977661 0.0355221771398159 -0.06840487558564262 -0.011654043279237108
-0.03088687511138366 0.01751434102528429 0.027787740472002442 -0.015138212307820462 -0.04998035511845975 0.06906078502851973 -0.06015660017822153 -0.02306135020653091 -0.0033583877881567803 -0.05255885961448508 0.014384538470147784 0.014962386035729011 0.09853840872537953 -0.040953849223346134 0.09558889691537253 0.03164596318573615 -0.045103923964354455 0.013185803391139797 0.037159898546802406 0.04893376823306503 -0.09019114984480002 0.021281298615294902 -0.0006545426952259403 0.08083105817874509
-0.04276116970816111 0.059772023901519755 0.02141299963285319 -0.029535808832936702 0.027323575601178374 0.024178232626060822 0.03555289172467188 0.044185675334141805 0.03183630806335075 0.06766742339250331 0.02564962073737967 0.08068074081459359 0.02926812177810456 -0.03821342320947279 -0.011835361967437688 0.015914761073680547 0.04647195358784767 -0.08197332485075622 -0.04097790967416895 0.04949617298767431 -0.06487198591113869 -0.0735680404506433 0.007881551796884212 0.09429791624226799
0.006170474740557014 0.0826973948963394 0.06609452391347947 -0.04860598308734754 0.06493796250848147 -0.003630434025251761 0.06129769875875332 0.049311870143409015 -0.032256949239622745 -0.07696605851004812 0.09257865857377554 -0.07184859699882347 0.09330004189255042 0.07202811937976436 0.044843342415103626 0.0959884485563807 0.09345394946000649 0.060917528804112386 -0.026844990118886733 0.058136393717787505 -0.09721626897981978 0.0073144616538118185 -0.009042794453225061 0.03456567637475072
0.034468159470202625 0.01691201833043321 0.06448346024535487 0.08805837835591085 -0.07833077956015387 -0.05323561955768337 -0.09499507007070354 0.07684696904297045 0.012281476449975764 0.08305118174863188 -0.055726559985202 -0.08735659176796091 0.06477107027808954 0.0818775276855784 -0.039561965094149956 -0.01834082884091745 -0.0720445974985558 0.08925230657638925 -0.03912708312879896 -0.0014750762043588272 -0.08056160027563569 0.07745186170570048 -0.0728671902587327 -0.009271248622221478
0.03409724377003426 0.04862802430463431 0.08919481715588642 -0.016174649317055437 0.048453802953063174 -0.069095419518033 -0.017023094512638615 -0.08019567305789431 -0.0021305924420770977 -0.0183768228604599 0.0903043050762119 -0.09345674262899062 -0.02589400825311293 -0.011323382787859673 0.09011103397028539 0.07109003866119093 -0.08012907507877394 0.03713605309625706 0.008893172296428983 0.09556850589040936 -0.02826523175753641 -0.02037207145112538 -0.062038287567784095 -0.07556805618254725
0.0696066376927362 -0.009056526285896566 0.0325537476123956 0.028340893446643534 0.019429191903909016 -0.09572850905272588 0.05735891809092336 -0.05128622056719528 -0.07481522293839143 0.01291559518159266 -0.08627796943512883 0.05303147517771689 -0.0585685259306683 -0.05680972961626505 0.07393908535390895 -0.03428808931355391 -0.07048916401171126 0.08010620712635164 -0.09943288970399673 0.07168122527603527 -0.07106240393589841 -0.07400157371131265 -0.04986916065437524 -0.06510057581972131
0.03221152851946335 -0.09484397004276034 -0.09702793455385823 0.05799693284695079 -0.05241367878190739 -0.03524570760759552 -0.06515075971876456 -0.08952019642776471 0.048343611390829905 0.005217105319573423 0.04913305500679915 -0.004750806915349945 0.05560340786284054 0.0026475915218383272 -0.07818919799923091 0.000767737957164269 0.08908312859402126 -0.09132699262016566 0.05664539919607592 0.07339618155196767 0.004290242942616818 -0.008391495580463593 0.09280523662440573 -0.08783491850109884
-0.004203617800327339 -0.019676549097487908 0.03721949921244655 -0.001946229171154945 0.08194016582304586 -0.0853018568467099 -0.08384190451784163 0.021659484726687994 -0.08686355333597723 -0.04499680008840937 0.02661534486020309 0.009671286809672108 -0.03496291133626642 0.09892555117218471 0.00611136748626491 -0.009256916484905675 0.02108535830706257 -0.08016430766419161 0.040355883709213225 0.07055854745911502 0.03018333297626108 0.05379254602094771 0.04416798333151983 -0.05699538673450062
-0.009689016806943701 -0.054301285127083126 -0.03221367623296496 -0.00930021941851053 -0.01680206994770095 -0.08098283214487384 -0.014647198747808399 0.03302157261206179 -0.025139795312892635 -0.06947221504625525 0.08459700714687687 -0.08657333837267045 0.0663543776949709 -0.08135397965926452 -0.08068711348684288 0.04775919969774314 0.06235385705547847 0.011274147123070025 0.01729301654789539 0.012317282798414486 -0.034070803716758996 -0.07555374292908815 -0.02928038407324647 0.033068104000583076
0.05005685005029567 0.073618429773813 0.044212135749229886 0.09367972506229491 0.020082018244935412 -0.0296707628613702 0.015583703677970975 -0.05745223886559878 0.03134726059763043 -0.055151026178486884 -0.07835632361454668 0.06907468372026901 -0.02648778987692997 0.05252112638736994 0.014820000866292538 0.06144427423046889 0.06903103226567162 0.09490932042514164 0.06368537190813392 0.02271465610709296 0.028539832765966278 -0.09474923370928333 0.0858168581989873 0.0658921579919326
-0.046510454969177877 -0.06391678560782912 0.04053975457312092 -0.038203062234017975 -0.03203506864454833 -0.09877884211926827 0.07397254130728764 0.013264218952275253 -0.019843131200096883 -0.07162506916974627 0.026634402531102774 -0.09386858032381883 0.04922235240114134 -0.056973423993297814 -0.016033501247099374 -0.03182080364613345 -0.025989381504599215 0.04431919354853464 0.0553671239933482 0.013518711322879448 -0.08300859200456415 -0.08947823471489565 -0.06851802057856937 0.02356763638520612
0.034793742122622595 -0.045579431290756214 0.03238773856165225 -0.0028676590218007503 -0.011591162660444174 -0.045366631127046114 0.05098862873367413 -0.07723649837795965 -0.014017273320421936 -0.04335070598391014 0.03569725095202661 -0.0026734493271498294 0.033426511747269905 -0.0909165274791145 -0.020947320782474216 0.019864991388890085 -0.09846258282002343 -0.03971612759631265 -0.05775320415593754 -0.0725530389485346 -0.04889609919570814 -0.03437552881243178 -0.09845401868613762 0.049402824685953556
-0.06486103962483154 -0.023958510856952747 0.04073425267653272 5.2469311242628325e-05 0.06667084048397565 0.061240037313352785 -0.08558490068156843 0.07235287240451771 -0.09153954768744173 -0.09625169268287087 0.08423248690048249 0.07242200272241328 0.01515183214736622 0.014679936177168604 0.04189979231378685 -0.01646120803130388 -0.07696532546724036 -0.09582868819505025 -0.03504636411089723 0.060264430862090435 0.02362505266084805 0.06640518261434145 0.08395395034827693 -0.08237402374042307
0.0688968719629394 -0.05133670503545327 0.017774257660582382 0.0047925086001263245 -0.02084666062813341 -0.03794508763282774 -0.03209734377030722 -0.033386275501373616 -0.06637345839086269 0.002096656908429667 -0.0771946720322895 0.0019904124645943877 0.0811845463160101 -0.030124946905523947 0.04547582113478085 0.0637897203049704 0.06300740115000283 -0.052746230210655144 -0.07071115634446112 -0.06054563943520335 0.020479797054633167 0.052043059109378426 0.031101802103747828 -0.06457077421055418
0.05456961784951206 -0.0011765949965222705 0.05088916504939717 0.05197542992154969 -0.010218948600987404 0.08483085167713186 0.012898356680559858 0.02705966381211869 0.024904355888378957 0.07284937496628324 0.025443481379954364 -0.06980851972138463 -0.08634274830084879 -0.011558387232743023 -0.03943591297219742 -0.04506526650276817 -0.0887655759573844 0.0014673770579556322 -0.037918429878737815 -0.009617227259863553 -0.08862198983320953 0.0663393263326243 -0.08465379976530901 0.07285000678504783
0.07105867429121807 0.023001677683114716 0.001413563466791029 -0.007457668214545549 0.010863274267660789 0.0583635594530717 0.07917535311136054 -0.010053259269818746 0.061963183539594235 0.030367490929721963 -0.03569464742391433 -0.004874194411386104 -0.0698277846608723 -0.08762525997977987 -0.07929962454592168 0.0798253667911547 -0.03131244483234648 0.042863109833492535 0.0009098003001914712 -0.06548821771272702 -0.05045125528034316 -0.012448345138153405 -0.01211564164747514 0.0045496070531091115
-0.06825075840369173 -0.02542960357973459 -0.043421284277116425 -0.01824612055053594 -0.032326570631716095 0.01957717247659789 0.05784538631273295 0.029461071393861393 -0.08681762914405651 -0.08109881049698114 0.035675868968016194 -0.04317060522437726 0.04474673100049237 0.03131281728209559 0.08126853943273546 0.07465593241210777 -0.03332759278788869 0.01654790291728392 -0.07171432388313644 -0.030035842492831158 0.09353930153854892 0.03969599256237619 -0.02160840313292793 0.01900824563031496
0.08760043991315217 -0.038083622516807816 -0.024664138788739964 0.058332391572708725 0.06263695676296019 0.0340232799989445 0.06579179457889292 0.04775493442589657 0.03708288805551524 0.005278667946834806 0.02920496414669757 -0.015318726735579255 -0.027634380730643088 -0.027480466203591125 -0.06394741542463107 -0.05716146775821993 0.08953365350686937 -0.0027458158254545506 -0.054691390693222555 -0.07248692936458415 -0.08456698313982475 0.06888567773717666 -0.07977184726642117 0.05417494407262022
0.06702396532691121 0.07673643309851233 -0.09245050152848776 -0.032647125607143695 0.05326152088944833 -0.0737901917140984 -0.02465602583549506 -0.0675505575823099 0.06626901133782512 0.054219562746197686 0.06180874392786023 -0.06689216685118826 -0.01246531897233065 -0.017828277700693312 0.03527258443770659 -0.05249395971061499 -0.011160258038944867 -0.04301441348732835 0.04970730361908726 -0.010214407393331931 0.006802229939652224 -0.03810642068744208 0.06172477421815728 -0.006196878993549454
0.06702267854514149 -0.02643180835499344 0.0894260340488246 0.09688795870631547 -0.0076640043118021695 -0.04364565345924492 -0.023625513161857903 0.005491957692296531 0.09325363064118947 0.06337824791624802 0.060251844830309514 -0.07232029307931376 -0.04999935768219859 0.02823580724088942 0.07482338901044741 0.010908149084886243 -0.07948205365031813 0.0691784553466877 0.07023320961695576 -0.04298739718813432 0.05262336605833817 -0.04544174008172868 0.08106124179564825 -0.07053026880167915
-0.012505487961003842 0.08928265260235213 -0.05559239861860388 -0.009774401955858214 -0.03008298437227022 -0.0946659618394123 -0.08934862256578512 0.0004014229386470891 -0.052844385227313474 0.09890507024765824 -0.025017465316446483 -0.09436249089436999 0.08616518094999062 0.06783525752232114 0.029992136858836338 0.05827612749643521 -0.07248008245482568 -0.04262412053734637 0.06595231663056453 0.03921439771519672 -0.07224146163636276 0.04110723505781608 -0.010279705203550676 -0.09894976033887642
-0.08415484574585574 -0.04881521431259106 0.0669926198564762 0.009760849088767093 0.04544695706498636 0.005554301177344859 -0.07776262793515232 -0.042379684392153893 -0.03976976108275601 -0.09045011067622975 -0.016034891249311387 0.05877982172788762 -0.008577276672710271 -0.077828420941997 0.08102937713239972 0.019347808563789398 -0.09671292955882112 0.0030751460418812215 -0.05161237311580134 -0.071284631950748 -0.014152221379333252 0.02296191655519013 -0.051887152238691295 -0.016686480958292033
0.032874260348401824 -0.08287720900254765 0.09493089819044434 -0.0864641354182308 0.005211889064434108 0.0014655393159573177 0.0976662971192935 0.010830390483639096 -0.021909253487987182 -0.0059729843683028055 0.027134158293726007 0.09620788451031206 -0.04926994778615745 -0.09675155377821049 0.05770400325590305 -0.03103950136732174 0.04658820429012833 0.025651392495131292 0.05430027482197183 0.04703739696246226 -0.03349627832560302 -0.09113286234095837 0.00920274904153831 0.06270177311121763
-0.06498217458965833 0.055828518695656304 -0.007075420050592446 0.0390778503992128 0.02634716955166755 0.06229953636952129 -0.08737989259355508 0.05523807994068436 -0.008464084510529352 -0.04131148576499375 -0.09123874486817539 -0.060106033256962337 -0.0916188116139236 0.08667419599007947 0.00307671785089976 0.0978245404592247 0.008606139530837179 -0.04933724695947653 0.050658183763772985 -0.061779313853217825 -0.028605164792927323 0.05616831339568501 0.07315965541561151 -0.03361506272373109
-0.07510499835112333 -0.0263961651370654 0.07789730340245629 0.04866154110392423 0.07892749899101068 -0.022671046347861573 0.09474471686306182 -0.0007593546925954708 -0.0004953215012745427 0.08486209332539271 0.0038551707069884034 0.06022961748035477 0.04541626486852715 -0.08421459878890643 0.020490659766045444 0.06446825590797733 0.009094879468927397 -0.035757714357081194 -0.08398621778500096 0.03218384429162732 -0.03870082878184951 0.020524325546119965 -0.01477678542339092 0.03795296168909726
-0.029690603245601577 -0.0915289674299741 0.07400743501127843 -0.029488137938303544 0.09963011955460982 -0.04508892798502848 0.09600545583885584 0.08958087572061726 -0.08499176700236816 0.027502507576659674 -0.027337773869803544 0.06021919511243398 0.03588212156293796 0.09055787925592157 -0.07144410632749006 0.02151458066417107 0.05626239394869331 -0.0930402068402916 -0.08655332738757825 0.05570307470137309 -0.026734305378570286 -0.023429119662244452 0.01344892834482389 0.021018965770957104
0.03581241138267899 0.0897647058531113 -0.025597324305863256 0.05261689435971592 0.014784355666779131 0.0058919763072579345 -0.020393190809510006 0.029912147341206313 -0.05007766938132041 -0.0773102774829964 0.04713497189588553 -0.00019120794870663982 -0.022602523992147308 0.012334542151929417 -0.04764466468250084 -0.047942045772019326 -0.010745377518876761 0.09927302243095215 -0.042884624460368406 0.08329578190837628 -0.001759960949155176 -0.07547251561920583 0.07056525807686453 -0.009591462950920532
0.07973580615724607 -0.010977761451509 -0.08244185177905379 0.036385852050127426 0.0691042437949399 -0.03608244558000598 -0.030514941052287095 -0.08701218433678577 0.008434272245112465 0.0782663364707778 0.07027241015062519 0.04236182080144252 0.08546489134463556 0.02754000451280325 0.058739276769000565 0.00175114903486015 -0.07572750898430863 -0.059803925764462855 -0.07222462559232685 0.05807461216154983 -0.09474319463834686 0.010804287451919012 -0.026217766899755857 0.060732345257717285
0.0103293867852855 0.022389672524104176 -0.08275690366961347 -0.03814185649430757 0.0999190087868774 0.04377393197814389 0.005139130966060029 0.053832910074939594 0.06466787990167813 -0.0852498574177522 0.09447594630275319 0.028467717877276255 -0.010005100867400779 0.03602179812991618 -0.031097043859460063 0.07559203033008235 0.05605258576766167 0.027958785873332614 -0.06360737268957253 0.09325292278682137 -0.013476342703605024 0.08214245418937746 -0.08891742999644459 -0.07516777587219757
-0.06939690663795989 -0.06706858402197519 -0.035467849769088886 0.04186642650584918 -0.030795383531625392 0.08818081098630695 0.07898518336422489 0.06918674123117313 -0.04987893820360019 0.027011418277549187 0.010168283096627942 -0.07496594097461946 -0.03943507877822479 0.006695605953676104 0.0005146289482525351 -0.06627281965045864 0.08832139757371918 -0.06916114662408737 0.03174657467675085 0.044126553687454606 0.02102778157237109 0.0685060008226778 0.012723606886259148 0.06504725346532642
-0.09432530242022448 -0.09090763934173161 0.028290746764872032 0.015354246295475812 0.030225995497119962 0.05339180018326223 -0.016682643267350764 0.027798238441774092 -0.0003923879727767837 0.02543280205961687 -0.042065668639678845 0.091330033990881 -0.0034110363649161035 0.0609376308431466 0.03699816823913532 -0.04051322571405154 -0.08540539489893084 -0.0880173934130662 -0.012078900015917798 -0.003149773978528156 -0.05919539728732026 0.021332052564127263 -0.0374835001506134 0.0436725770224875
0.04683995096090937 0.07215547315086507 0.09507482558297606 -0.07384676968952271 -0.02589196038994175 0.012330243149673834 -0.03617682271936855 -0.006705486591872714 -0.04650566510916352 -0.05041622349489088 -0.08063766948788571 -0.0419575990060197 -0.02317003329967879 0.023075488832793728 -0.05034594392376268 0.07306150034414355 -0.06806006757396782 -0.034512835839761016 0.015537407578719284 -0.03745701582754539 0.05262427502772571 -0.0003468915880182333 0.0029449678462969003 -0.0002480583204691744
-0.03829190358911414 -0.0953647403567298 0.08904656081384746 0.0010888926047543102 0.09333732611049508 -0.056971115494751784 -0.029420982228728937 -0.08989191907442162 -0.0010211592949647408 0.07646789527364023 0.03085200737792343 -0.005882629326360855 0.0073381498577854 0.06943447307869358 -0.013814446130491903 0.07649114618371858 0.04550161267187838 0.05277135283239792 -0.02681252949648741 -0.01988367579704868 0.014056328776205856 -0.061068939622456186 0.010644585324230335 -0.08529365005143164
0.0008511058246409436 0.052880822941447914 -0.0440558644752036 0.09781814012414453 0.036079728023772156 -0.0762377960552821 0.09501656308275683 -0.02121925745427858 0.05897944567618915 -0.032182940009486946 0.08778971339107508 0.050993034458558795 -0.06018842368951001 0.0018245032450364268 1.5580714128771156e-05 -0.09093932950658506 -0.07259272528649592 -0.03339185892944656 -0.005251169920962001 -0.008602288143425202 0.021252104480760828 0.0031011464294507796 -0.03440683047269476 0.0226136242129356
-0.06749959082461213 0.09812314751222803 0.04786387211472082 -0.04015313149433635 -0.03272530956966434 0.06565787719147517 0.006467965975175266 0.041747961287087576 -0.04004188705251726 0.06314976664876484 -0.026328438026846077 0.03476127849460331 0.09597960623583238 0.016740428369757268 0.05935096278602944 0.04506484251037107 0.03760873024055433 -0.09467056900723336 -0.005081957182987901 0.09341413923441019 0.05658079828628429 0.05523240503441443 0.015526879172836572 0.04428002245926135
0.0 0.0 0.0 0.0 0.0 0.0 0.0 0.0 0.0 0.0 0.0 0.0 0.0 0.0 0.0 0.0 0.0 0.0 0.0 0.0 0.0 0.0 0.0 0.0 0.0 0.0 0.0 0.0 0.0 0.0 0.0 0.0 0.0 0.0 0.0 0.0
