-202.019650 645.821047 524.672287 697.669040 -928.948603 927.644160 595.372184 -652.898184 870.436027 796.614130 -883.424311 -923.681851 -775.016251 888.930945 -836.619126 672.732607 -488.061121 639.795540 -338.558294 162.765604 783.980760 787.639250 -227.964126 -861.797377 
201.862993 -645.798185 -524.643543 -697.663882 929.002101 -927.606208 -595.289626 653.005270 -870.586189 -796.768849 883.403194 923.588899 774.862892 -888.776800 836.575786 -672.608478 488.078709 -639.901710 338.617950 -162.825485 -783.939676 -787.666782 228.018838 861.967040 
201.937732 -645.931603 -524.769851 -697.516265 929.008142 -927.590123 -595.239218 652.961786 -870.539504 -796.677036 883.357417 923.657579 774.990680 -888.805085 836.596469 -672.773449 488.124991 -639.796268 338.563702 -162.827007 -783.962181 -787.678993 228.086772 861.836406 
-201.840098 645.883296 524.714979 697.663252 -929.075685 927.693742 595.406723 -652.941658 870.452903 796.813428 -883.254607 -923.672771 -775.021009 888.855555 -836.790780 672.624467 -488.171675 639.873693 -338.646941 162.754865 783.891185 787.841585 -227.995938 -862.008060 
-201.925586 645.921703 524.706219 697.494476 -928.995443 927.563339 595.431195 -652.982495 870.562611 796.817903 -883.198250 -923.711697 -775.049137 888.732241 -836.734415 672.745340 -488.069868 639.746209 -338.531550 162.824773 784.034793 787.724499 -228.227378 -861.882925 
-201.980827 645.982314 524.729797 697.724144 -928.882142 927.510610 595.206681 -653.024587 870.570630 796.687540 -883.428634 -923.577207 -774.960056 888.848221 -836.771941 672.620611 -488.247428 639.889891 -338.602405 162.694566 784.031869 787.735403 -228.111558 -862.031287 
-202.002561 645.950669 524.621568 697.669301 -928.919379 927.656784 595.304021 -652.982109 870.445319 796.696376 -883.393795 -923.596667 -774.898107 888.847572 -836.747088 672.767216 -488.194890 639.814526 -338.585022 162.715663 783.998342 787.724748 -228.160890 -861.889815 
-201.961852 645.858010 524.566816 697.488624 -928.905569 927.665126 595.165330 -652.978386 870.599018 796.667678 -883.431884 -923.536179 -774.860012 888.810476 -836.634675 672.761513 -488.132272 639.955265 -338.636562 162.898288 783.899919 787.608169 -227.941872 -861.904555 
201.961476 -645.999642 -524.760557 -697.526030 928.934775 -927.630432 -595.299694 653.128717 -870.432341 -796.742529 883.314804 923.574307 774.855298 -888.804972 836.635548 -672.614854 488.214188 -639.903944 338.420210 -162.791536 -783.972461 -787.541891 227.970659 862.009367 
201.834281 -645.936719 -524.745690 -697.543196 928.882830 -927.637108 -595.239025 653.021334 -870.478248 -796.661378 883.455071 923.610798 774.853932 -888.696755 836.605443 -672.827810 488.206467 -639.698126 338.598626 -162.857676 -783.913212 -787.660171 228.138463 861.988232 
-201.873382 645.837042 524.619949 697.539062 -929.032499 927.686970 595.270912 -652.895945 870.539335 796.746794 -883.280663 -923.655189 -774.909878 888.940142 -836.599369 672.681018 -488.189904 639.853255 -338.472681 162.686840 784.005190 787.685925 -228.099656 -861.974044 
-201.853148 645.959773 524.604490 697.627411 -928.985994 927.593238 595.342928 -653.038844 870.525900 796.752527 -883.328450 -923.718696 -775.022452 888.882904 -836.744628 672.601898 -488.033214 639.740482 -338.489901 162.853318 784.001171 787.649915 -228.082907 -861.863439 
-201.970200 645.912741 524.723003 697.651916 -929.101870 927.592311 595.274252 -653.033013 870.583716 796.790749 -883.410465 -923.657731 -774.941380 888.918900 -836.691808 672.678455 -488.168181 639.869494 -338.596461 162.696049 783.983271 787.736915 -228.062764 -861.919507 
-1682.137269 702.317544 1986.531007 1307.031783 391.922839 546.041810 502.302291 -1153.799393 739.117763 -472.372303 -1612.071257 -1547.291954 -205.218475 1184.080881 -500.904837 311.259978 -966.687977 2673.571948 1255.763151 -1259.213514 -103.529932 21.962383 102.753880 -1475.319505 
-1682.121939 702.179263 1986.484275 1307.175286 391.914702 545.945133 502.186991 -1153.659204 739.237285 -472.580072 -1612.199073 -1547.449878 -205.161091 1184.151080 -501.251961 311.267502 -966.669759 2673.651389 1255.674760 -1259.219496 -103.228537 22.046259 102.739707 -1475.112087 
-1278.189485 -589.391561 937.076202 -87.950859 2249.908947 -1309.388116 -688.410044 152.096099 -1001.900065 -2066.007161 154.472984 299.796823 1344.800274 -593.445974 1172.287202 -1034.168802 9.621347 1394.134858 1932.793593 -1584.818884 -1671.359326 -1553.381565 558.868179 248.604262 
-201.910617 645.884929 524.596033 697.597278 -928.909214 927.514078 595.127232 -653.000472 870.475274 796.752102 -883.394651 -923.534828 -774.980245 888.833721 -836.660602 672.746434 -488.190238 639.855567 -338.567049 162.770808 783.908341 787.607916 -228.067553 -861.983918 
-201.932820 645.766543 524.718990 697.490193 -929.014307 927.569962 595.279867 -653.014626 870.510404 796.641108 -883.358935 -923.613237 -774.962471 888.787757 -836.609068 672.686498 -488.036009 639.792426 -338.499964 162.881671 783.924559 787.720045 -228.018005 -861.959064 
201.903993 -645.942847 -524.779708 -697.693641 928.846958 -927.517473 -595.286870 653.011083 -870.434696 -796.725445 883.305295 923.535388 774.903486 -888.760375 836.738531 -672.599211 488.072593 -639.783900 338.498391 -162.700884 -784.036366 -787.578539 228.102870 861.944745 
-201.897286 645.930194 524.716897 697.601028 -928.945278 927.654349 595.225346 -653.009755 870.517256 796.658793 -883.342506 -923.640678 -774.991381 888.699030 -836.751697 672.726264 -488.106860 639.750133 -338.496765 162.789533 783.983962 787.652713 -228.108126 -861.794817 
-1278.244752 -589.360477 937.099953 -88.186216 2249.975883 -1309.387241 -688.453248 152.007655 -1001.960453 -2065.873800 154.512878 299.859688 1344.842140 -593.710712 1172.448093 -1034.028065 9.708907 1393.936998 1932.861110 -1584.680705 -1671.477850 -1553.500648 559.016245 248.575070 
1278.337388 589.364037 -937.214178 88.213393 -2250.003938 1309.274365 688.359987 -152.013556 1002.072004 2066.071945 -154.468324 -299.947360 -1344.818760 593.509981 -1172.305232 1034.100546 -9.510265 -1394.087854 -1932.990322 1584.754578 1671.438501 1553.633103 -559.005726 -248.584098 
201.999782 -645.853492 -524.604296 -697.586109 929.030484 -927.706646 -595.269890 652.901447 -870.647089 -796.725619 883.216797 923.737164 775.105018 -888.769268 836.833877 -672.651212 488.196471 -639.827479 338.703870 -162.797114 -784.124682 -787.779888 228.175786 861.857070 
-201.888238 645.965915 524.620982 697.666580 -929.038970 927.684624 595.238581 -653.012372 870.381515 796.805229 -883.391422 -923.695798 -775.040547 888.845198 -836.554971 672.788671 -488.105463 639.746397 -338.452595 162.691531 783.846799 787.762619 -227.983462 -862.015008 
-0.058860 -0.080638 0.078964 -0.041952 -0.098480 0.092638 0.127113 0.085592 0.107469 0.056826 0.129666 -0.060908 0.075665 0.072863 -0.111742 -0.067469 -0.029029 0.077734 -0.026380 -0.030643 0.004946 0.123337 -0.076721 -0.022453 
201.861317 -645.875626 -524.577371 -697.512720 929.112403 -927.692246 -595.368419 652.798748 -870.552062 -796.639856 883.234001 923.641171 774.915101 -888.812905 836.671902 -672.704640 488.002615 -639.767729 338.564369 -162.774760 -784.081138 -787.778803 228.154419 861.961785 
-202.023136 645.943744 524.770661 697.660433 -929.023427 927.617047 595.218261 -652.961759 870.499878 796.717689 -883.390325 -923.585645 -775.009576 888.929471 -836.758913 672.719270 -488.221464 639.921342 -338.542870 162.691040 783.994306 787.717145 -228.023550 -861.937916 
-201.983332 645.971782 524.576868 697.586330 -929.002742 927.568221 595.351458 -652.976967 870.567800 796.797750 -883.433092 -923.682357 -774.993222 888.762898 -836.742535 672.801872 -488.064225 639.714770 -338.549744 162.829800 783.885482 787.615325 -228.170423 -861.896449 
-201.960751 645.756481 524.754105 697.496503 -929.075631 927.731329 595.278214 -652.889540 870.594001 796.764448 -883.425057 -923.657530 -774.984397 888.701396 -836.806506 672.597467 -488.005447 639.785386 -338.633136 162.809400 783.912548 787.785119 -228.085742 -861.938666 
-202.009146 645.779315 524.681451 697.541667 -929.040452 927.630084 595.318293 -652.898418 870.483120 796.652798 -883.374801 -923.502304 -774.863163 888.858225 -836.743449 672.721963 -488.199735 639.895984 -338.661586 162.860466 783.995759 787.647428 -228.012161 -861.989886 
202.003439 -645.898783 -524.580385 -697.538555 929.098146 -927.730785 -595.369673 652.938097 -870.617277 -796.737246 883.278129 923.625699 774.938109 -888.894776 836.835156 -672.644373 488.126252 -639.877344 338.665639 -162.838184 -784.006304 -787.735590 228.117919 861.879349 
201.834868 -645.820845 -524.664228 -697.485520 929.079610 -927.724133 -595.366647 652.983566 -870.459036 -796.844531 883.205728 923.635910 775.028034 -888.746723 836.803493 -672.790931 488.129241 -639.764970 338.557175 -162.860638 -784.074280 -787.671497 228.005280 861.915710 
202.005899 -645.838383 -524.663763 -697.562026 928.865645 -927.589140 -595.193361 652.859027 -870.401042 -796.679922 883.423044 923.689401 774.837440 -888.773963 836.691869 -672.582400 488.091388 -639.887218 338.585856 -162.771097 -784.046802 -787.612031 228.147368 861.941573 
0.007554 -0.086991 0.006590 -0.087018 -0.042283 -0.105468 -0.077170 -0.119649 0.044238 -0.082842 -0.080347 -0.060252 0.072675 0.050928 0.145424 0.021749 -0.022544 -0.100624 0.076867 0.080997 -0.067843 -0.065372 0.024264 0.011590 
201.883520 -645.863922 -524.766809 -697.680511 929.069806 -927.713492 -595.251902 652.866349 -870.578159 -796.760623 883.403149 923.706339 774.895294 -888.714592 836.671468 -672.697249 488.174620 -639.778995 338.622091 -162.789323 -783.934781 -787.678477 228.069486 861.842751 
202.023201 -645.778868 -524.658288 -697.516691 929.010449 -927.614655 -595.338480 653.071414 -870.499350 -796.656460 883.454553 923.664290 774.983959 -888.728783 836.606971 -672.717329 488.197933 -639.711232 338.510854 -162.696337 -783.864641 -787.695986 228.087670 861.970782 
1682.133398 -702.343983 -1986.458789 -1307.067610 -391.962771 -545.887697 -502.132478 1153.798658 -739.083186 472.565968 1612.176843 1547.382804 205.091871 -1184.149128 501.100785 -311.224941 966.690839 -2673.680079 -1255.770017 1259.203406 103.436352 -21.892538 -102.801086 1475.221978 
0.110674 -0.018860 0.017410 0.016234 -0.007049 0.097559 0.145876 -0.027222 -5.307794 -0.008274 -0.007627 -0.001587 0.079397 0.062267 -0.091314 -0.016599 0.065251 0.027458 0.033563 0.060438 0.092480 0.038884 -10.308945 -0.054723 -4.146648 0.111283 -0.167373 -10.357235 -10.265103 0.085264 0.079096 0.010807 0.012815 -0.012370 21.134247 21.961116 
0.007277 0.180091 -0.116001 -0.069454 -0.115800 -0.032695 -0.013599 0.039967 5.332267 -0.036047 0.050848 0.061149 -0.081516 0.028714 0.053764 0.089563 -0.078857 -0.031940 -0.050906 0.020796 0.068273 0.042277 0.364442 0.099178 14.428824 0.023839 0.077984 0.439949 0.325176 -0.021582 -0.018024 -0.081227 0.023269 -0.022241 -21.106151 -21.930354 
-0.084001 0.117596 -0.048311 0.003085 0.007666 -0.142812 -0.094675 0.019581 5.314263 -0.059339 -0.145067 0.047100 -0.111703 -0.040007 0.056047 0.086798 -0.099836 -0.081264 -0.071241 -0.152024 -0.002298 -0.095978 10.220387 0.015708 11.297852 0.018241 -0.002341 10.198149 10.095471 0.094399 -0.032517 -0.071468 -0.145346 -0.098708 -21.038049 -21.848717 
-0.099518 0.062067 -0.089873 -0.072584 0.021204 -0.000462 -0.040425 0.023243 5.344929 -0.119074 -0.032325 -0.120883 -0.110618 0.019694 -0.030601 -0.091180 -0.128328 -0.198157 -0.105471 0.035281 -0.059545 -0.067412 4.137127 -0.127032 15.874566 -0.000909 -0.033286 4.106502 4.033189 -0.033229 -0.098909 -0.033653 -0.098132 0.006374 -21.158306 -21.807327 
0.028086 0.042580 -0.017391 -0.152590 -0.025563 -0.102314 -0.045351 0.077206 5.332568 -0.032145 -0.111842 -0.127406 -0.002920 -0.033806 0.070586 0.019040 -0.014389 -0.017490 -0.067848 -0.053223 -0.085333 0.016672 9.122970 0.157007 -27.812050 0.039399 0.027875 9.132571 9.092144 0.146318 0.013331 -0.101404 0.008899 -0.090995 -21.066604 -21.860393 
0.148227 -0.144595 0.167832 0.068324 0.093705 -0.037119 0.081622 -0.073647 -5.229301 0.000747 0.060417 0.130682 0.023691 0.019969 -0.062261 0.007053 0.029821 0.028649 0.078664 -0.027846 0.097760 -0.078594 -2.594972 -0.049664 28.444543 -0.042609 -0.043648 -2.605023 -2.456396 -0.056292 -0.034426 -0.023709 0.088685 0.067874 20.984220 21.930634 
0.004539 0.091865 0.120115 0.078202 0.093375 0.052935 0.025517 0.077999 -5.287612 0.104068 0.047026 0.029170 0.062317 -0.072326 0.040812 0.044346 -0.063118 -0.007978 -0.035678 0.056000 -0.008219 0.037315 -0.631028 0.045430 13.027454 0.002996 -0.047931 -0.595233 -0.636721 -0.068205 0.015122 -0.039127 0.041311 0.131885 21.058086 21.842100 
0.064218 -0.166146 -0.029659 -0.016135 0.066531 0.142855 -0.007324 -0.021406 -5.318367 0.110548 0.012187 -0.007644 0.057000 0.028435 0.067895 -0.043522 -0.059677 -0.066574 -0.002401 0.144742 -0.001468 -0.003983 -3.429824 -0.050816 -14.616043 0.144822 -0.194474 -3.251733 -3.384284 -0.021002 -0.032625 -0.017817 -0.002673 0.148562 21.035483 21.859929 
0.020378 -0.118642 0.097442 0.153119 0.024574 0.052526 -0.011097 -0.098855 -5.352111 0.099833 0.108207 0.067750 0.004893 0.039208 -0.071941 -0.036015 0.058480 -0.006018 0.024516 0.136118 -0.044163 -0.089691 -0.868206 -0.119725 33.874308 0.042496 -0.217896 -0.825976 -0.935909 -0.127544 -0.084763 0.058652 0.043141 0.018234 21.145675 21.878136 
0.014141 -0.034054 0.034051 0.062631 0.035774 0.106245 0.090539 0.087692 -5.341320 0.054162 -0.027992 0.173641 0.067370 0.013749 -0.027561 -0.038023 -0.039586 0.132562 0.016327 0.053962 -0.080895 -0.032798 -8.682008 -0.121243 19.135095 0.118901 -0.063800 -8.697364 -8.823458 -0.015490 0.159120 -0.024357 0.162887 0.019304 21.121688 21.923163 
-0.000017 0.052853 0.160080 -0.029714 0.092594 0.133919 0.079243 0.083743 -5.393685 0.080026 0.082449 0.097013 -0.016946 -0.068492 -0.082708 0.049687 0.025401 0.036402 0.128281 0.130252 -0.079852 -0.015757 -4.922841 -0.049053 -23.196623 0.093233 -0.127818 -4.828452 -4.971880 -0.207918 -0.017118 0.047454 0.132072 0.128941 21.059186 21.844932 
0.075375 -0.032806 0.128224 0.125879 0.111735 -0.026627 0.032157 0.073763 -5.404540 -0.044460 -0.007389 0.122936 0.121503 -0.031980 0.090857 0.011747 0.184187 0.062094 0.128719 -0.005409 -0.044700 -0.091040 -4.245972 0.062961 -27.364331 0.047492 -0.119083 -4.177738 -4.145499 0.127967 -0.047817 0.046433 0.114882 0.048987 20.940790 21.941810 
-0.015288 -0.010840 -0.096793 0.017152 -0.094358 0.001748 0.005088 -0.049794 5.346686 -0.063676 0.028235 -0.061773 -0.159042 0.018429 -0.080450 -0.060613 0.050170 0.026819 -0.098898 -0.046161 -0.097540 0.090368 3.811310 0.080199 -18.315853 0.031393 0.031625 3.850931 3.805410 0.042661 -0.060691 -0.078859 -0.082196 0.028550 -21.154457 -21.868584 
-0.009383 -0.025136 -0.025665 -0.026535 -0.066482 -0.036400 -0.031207 0.088424 5.309659 -0.013189 0.033291 -0.104291 -0.169827 0.040312 -0.035862 -0.053111 -0.173907 -0.243603 -0.161907 -0.056086 -0.099316 -0.069817 2.013533 0.034974 23.689247 -0.043631 0.120594 1.953118 1.950859 -0.067278 -0.203068 -0.131124 -0.130109 -0.091032 -21.092207 -21.793869 
0.025099 0.039669 0.016536 0.016791 0.002514 -0.035137 0.023137 0.000586 5.309983 0.023749 -0.131054 0.127404 -0.068163 0.019119 0.001914 -0.042717 -0.034239 0.161970 -0.099282 -0.142734 0.094214 0.006571 2.226407 0.067764 -20.823079 -0.105376 0.079934 2.259544 2.242869 0.214841 0.019408 -0.013966 -0.010916 0.085718 -21.105167 -21.947279 
0.157477 -0.040254 0.131789 0.011839 -0.036951 0.025682 0.020918 -0.070644 -5.352884 -0.026967 -0.033767 0.067455 0.010540 0.009281 -0.016758 -0.085168 -0.018924 0.142698 0.076059 -0.013692 -0.072948 0.046025 -2.403490 0.109276 15.159578 -0.005751 0.021037 -2.449884 -2.393955 0.041899 0.099447 0.186566 0.115464 0.080590 21.076083 21.885644 
0.133409 -0.094674 -0.003954 0.094995 0.078738 0.044396 0.054929 -0.040126 -5.413963 0.029803 -0.000724 -0.051659 0.005953 0.038407 0.027439 -0.086206 0.148209 0.014875 -0.022731 0.011968 -0.045781 0.053404 -3.210564 -0.010080 -10.419555 -0.019628 -0.108821 -3.208762 -3.193826 0.027561 0.190689 0.046722 0.018074 -0.029567 20.992391 21.829307 
-0.028454 -0.080380 -0.170798 -0.117809 -0.129399 -0.008616 -0.109941 0.045900 5.399419 -0.162394 0.004784 0.016384 -0.137123 0.062937 0.013828 0.088672 -0.072347 -0.168038 -0.060077 -0.144516 0.097888 -0.040605 14.782519 -0.028992 14.244422 -0.047544 0.092560 14.911689 14.919890 -0.065289 -0.214625 -0.076747 -0.060974 -0.147249 -21.113674 -21.799539 
0.004460 0.043392 -0.071456 -0.132141 -0.062460 -0.038524 -0.091415 -0.029591 5.285936 -0.142004 -0.129019 0.044739 -0.130454 -0.060296 -0.052751 -0.011045 0.054065 -0.021625 -0.037180 -0.053693 0.084661 0.040904 11.161446 0.152791 -7.039364 -0.040133 0.107888 11.194968 11.212937 0.054732 -0.092174 -0.003899 0.030595 0.042423 -20.972014 -21.777022 
0.059816 0.027532 0.048012 0.001909 0.000733 -0.034921 0.137642 0.037275 -5.386479 0.033786 -0.066674 0.057300 0.030574 -0.048741 0.020658 0.092975 0.079847 0.093996 0.115946 0.042114 0.091266 -0.053722 -9.799483 0.019522 3.332783 -0.025695 -0.144600 -9.834045 -9.977513 0.018595 -0.001329 0.085792 0.120207 0.012379 21.124537 21.909326 
-0.006937 -0.125853 -0.015695 0.102020 -0.007556 0.131087 0.087741 -0.048482 -5.290334 0.024691 0.152908 0.007573 0.076059 0.093806 0.025047 0.027506 0.064927 -0.065138 0.067226 0.093398 0.010031 0.035447 -6.040376 -0.090067 18.630364 -0.042074 -0.224157 -6.007854 -5.969046 -0.148655 -0.032145 0.088427 0.042827 -0.059173 21.123319 21.772530 
0.061200 -0.144902 0.116365 -0.010391 0.081284 0.057879 -0.032447 0.005341 -5.389415 0.128337 0.036801 0.013449 0.008010 0.103797 -0.098755 0.000473 -0.095056 -0.107641 0.145724 0.131912 0.019895 0.087127 -5.123735 -0.172174 18.755825 0.038833 -0.135712 -5.201613 -5.164616 -0.167112 0.089253 0.019090 0.102779 0.152222 21.065274 21.810269 
-0.086714 0.068552 -0.073269 -0.101791 0.029730 -0.071002 -0.055476 0.096976 5.243239 -0.158187 -0.146921 0.037430 -0.137685 -0.098011 0.014982 -0.097064 -0.133111 -0.033525 -0.112973 0.032924 0.046007 0.069366 2.120459 0.103079 -4.692389 -0.153936 0.021920 2.231027 2.280870 0.067274 -0.056944 0.029804 -0.082554 -0.152732 -21.164912 -21.956484 
0.075721 0.016456 -0.044788 0.039597 0.040285 0.132082 0.049838 -0.031947 -5.385656 0.120942 -0.026053 0.008997 0.002799 0.069421 -0.084625 -0.021812 0.053062 0.002347 0.135272 0.039649 0.037992 -0.073638 -4.065928 0.014683 -22.079621 0.089299 -0.170470 -4.180418 -4.106925 0.004327 -0.048452 0.016422 -0.016420 0.098924 21.096040 21.838487 
0.234669 0.001057 0.197217 0.176049 0.048662 0.166317 0.115407 -0.008347 -5.348779 0.084338 -0.076345 0.188740 0.158426 0.014404 0.000000 0.000000 -0.046327 0.013021 -0.131285 0.059983 0.000000 0.000000 -49.961128 0.092479 -48.893986 0.061116 -0.001688 -49.986338 -49.991520 -0.127544 0.431689 0.180315 0.322618 0.109003 -21.105542 -21.782501 
