-0.086745 -0.047173 0.000538 0.087188 0.030570 0.032521 0.095171 0.047778 -0.063673 -0.096148 -0.085231 -0.066544 -0.069748 0.125516 0.071324 0.054336 0.067832 -0.015557 0.003616 -0.014692 0.006868 -0.037573 0.106606 0.108634 
-0.069912 0.070035 0.028206 -0.082030 0.022928 0.005431 -0.012613 0.059308 -0.086489 -0.058571 0.064114 -0.026408 -0.083611 0.028629 -0.114664 0.069793 -0.050244 -0.090613 0.056040 -0.045189 0.034216 0.010041 -0.051894 0.061029 
0.004039 -0.065433 -0.099632 0.063232 0.028518 0.026782 0.043665 0.014590 -0.039725 0.037830 0.023125 0.043724 0.041667 -0.005435 -0.091295 -0.089346 -0.003197 0.007832 0.000052 -0.047171 0.006924 0.005301 0.009916 -0.073056 
0.092807 0.015076 0.043230 0.081400 -0.096512 0.082103 0.129710 0.004304 -0.046797 0.103150 0.084473 -0.057464 -0.074506 0.050126 -0.100330 -0.053804 -0.042722 0.062596 -0.085031 -0.025431 -0.082707 0.164762 0.074794 -0.102049 
-0.014686 0.074612 0.057477 -0.052531 0.002588 -0.066065 0.124817 -0.041507 0.043262 0.074585 0.119515 -0.123371 -0.075149 -0.025757 -0.046604 0.026027 0.032372 -0.003470 0.063455 0.020089 0.050878 0.031181 -0.126658 -0.000034 
-0.025916 0.092965 0.035041 0.107448 0.078174 -0.083263 -0.040968 -0.073652 0.090579 0.010303 -0.068239 0.065081 -0.041038 -0.004639 -0.078852 -0.016617 -0.091762 0.017376 -0.073591 -0.061341 0.068000 0.075075 -0.070813 -0.102155 
-0.074494 0.092383 -0.044229 0.099146 0.060975 0.031558 0.004570 -0.024913 -0.058298 -0.027946 -0.069001 -0.000223 0.061175 0.066978 -0.066465 0.063167 -0.075387 0.043437 -0.006960 -0.068887 0.034778 0.034892 -0.072664 0.017099 
-0.022534 -0.016043 -0.107826 -0.100215 0.073324 0.056543 -0.100985 -0.041190 0.103076 -0.037732 -0.088094 0.095087 0.078733 -0.008229 0.060230 0.097356 0.004602 0.118154 -0.087324 0.123165 -0.074728 -0.070563 0.123614 0.007455 
0.019391 -0.121960 -0.071587 0.076692 -0.026100 -0.030447 -0.030649 0.160250 0.055227 -0.055557 -0.036172 -0.036064 -0.079236 0.021335 -0.048632 0.050602 0.074364 -0.083456 -0.133948 -0.025284 -0.010100 0.114620 -0.080579 0.092233 
-0.093786 -0.078433 -0.079893 0.026959 -0.097524 -0.011882 0.060426 0.064138 0.025369 0.062944 0.130277 0.014354 -0.105350 0.083839 -0.075180 -0.123761 0.086964 0.072963 0.020564 -0.073126 0.050352 0.029685 0.050237 0.081318 
0.081529 -0.052307 -0.074807 -0.077634 -0.072183 0.093097 0.023263 0.054990 0.059284 0.069557 0.079732 -0.012901 0.009140 0.087282 0.093720 0.043790 -0.034238 -0.019260 0.056133 -0.069067 0.041321 0.025597 -0.058911 -0.044912 
0.080545 0.093603 -0.065729 0.047914 -0.006370 -0.023667 0.060045 -0.091648 0.026121 0.037661 0.005842 -0.104841 -0.073439 0.083254 -0.056864 -0.082205 0.094974 -0.063618 0.073749 0.073482 0.032066 -0.034379 -0.006051 0.046023 
-0.036507 0.046571 0.052784 0.072419 -0.122246 -0.024594 -0.008631 -0.085817 0.083937 0.075883 -0.076173 -0.043876 0.007633 0.119250 -0.004044 -0.005648 -0.039993 0.065394 -0.032811 -0.083787 0.014166 0.052621 0.014092 -0.010045 
-1480.224795 56.474553 1461.885324 609.489486 1320.921771 -381.598126 -93.015826 -500.855936 -131.401744 -1269.124798 -728.763068 -623.706532 569.760534 295.334441 335.777602 -361.471000 -478.587266 2033.836263 1594.361637 -1422.017280 -887.504273 -765.745877 330.866847 -613.429713 
-1480.198213 56.320505 1461.829747 609.614304 1320.912173 -381.678160 -93.097991 -500.735748 -131.274547 -1269.313655 -728.871888 -623.829635 569.797381 295.366530 335.444760 -361.423583 -478.551677 2033.849683 1594.244421 -1422.013835 -887.213961 -765.650877 330.829933 -613.217198 
-1480.100385 56.455530 1461.724944 609.596148 1320.910916 -381.758712 -93.103666 -500.844889 -131.380716 -1269.263843 -728.844781 -623.791503 569.826286 295.312024 335.599391 -361.449489 -478.480893 2033.884537 1594.198588 -1422.014200 -887.375411 -765.688247 330.767459 -613.278629 
0.044294 -0.004420 -0.098723 -0.019418 0.051102 -0.079795 -0.120417 -0.049537 -0.004777 0.074865 -0.034256 0.107460 -0.061227 -0.019139 0.032487 0.109206 -0.034572 -0.016948 -0.038235 0.014901 -0.055528 -0.052412 -0.026808 -0.054786 
0.001660 -0.097577 0.050300 -0.086949 -0.034233 -0.052208 -0.008886 -0.066196 0.010545 -0.078346 -0.029431 -0.000834 -0.010947 -0.006114 0.076010 -0.003437 0.091415 -0.004676 0.065427 0.102294 -0.039759 0.028280 0.064974 -0.046151 
-0.050918 -0.053498 -0.084952 -0.076945 -0.113358 0.076400 -0.039221 0.060148 0.045355 -0.048208 -0.055100 -0.106900 -0.015532 0.092485 0.045442 0.038017 -0.083073 0.088615 -0.030423 0.055023 -0.072497 0.081789 0.062125 0.015613 
0.026440 0.071436 0.062369 0.040046 0.052193 0.031056 -0.059636 -0.086299 0.005424 -0.074790 -0.015321 -0.020435 -0.032909 -0.085520 -0.054976 0.035179 0.011222 -0.051573 0.072896 -0.004806 -0.001462 -0.044423 -0.017900 0.100072 
-1480.199663 56.528872 1461.794709 609.430480 1321.015567 -381.793368 -93.205599 -500.943280 -131.480402 -1269.196563 -728.847517 -623.782600 569.923122 295.142148 335.755004 -361.390837 -478.446759 2033.809513 1594.332296 -1421.924798 -887.513981 -765.840320 330.975500 -613.354062 
1480.262688 -56.490621 -1461.865647 -609.342879 -1321.005566 381.640541 93.063265 500.912369 131.560013 1269.329185 728.849284 623.669979 -569.855267 -295.263011 -335.613884 361.397796 478.606287 -2033.875565 -1594.417180 1421.961158 887.462651 765.921026 -330.903253 613.317692 
0.088882 -0.006401 0.044446 -0.039102 0.032453 -0.077242 0.036488 -0.039541 -0.127740 0.017699 -0.100968 0.148838 0.131030 -0.011270 0.146066 0.068101 0.094231 -0.077800 0.108865 0.007570 -0.140767 -0.086570 0.075066 -0.025821 
0.046242 0.101795 -0.047708 0.089438 -0.058896 0.062454 -0.050172 -0.063942 -0.118344 0.085775 -0.061918 -0.083395 -0.089023 0.051327 0.130107 0.098736 0.021961 -0.050705 0.112796 -0.087846 -0.117519 0.070854 0.099517 -0.102095 
-0.058860 -0.080638 0.078964 -0.041952 -0.098480 0.092638 0.127113 0.085592 0.107469 0.056826 0.129666 -0.060908 0.075665 0.072863 -0.111742 -0.067469 -0.029029 0.077734 -0.026380 -0.030643 0.004946 0.123337 -0.076721 -0.022453 
-0.051157 -0.032635 0.068312 0.029577 0.113471 -0.052310 -0.050302 -0.144709 -0.032555 0.112639 -0.074188 0.055749 -0.063908 -0.066465 -0.010537 0.026338 -0.098096 -0.032044 -0.034117 0.029006 -0.106797 -0.070543 0.041452 0.071993 
-0.068225 0.054395 0.075905 0.043737 -0.063111 0.023174 -0.029388 -0.010824 0.019827 0.040452 -0.029930 0.056643 -0.090558 0.076611 -0.065824 0.082042 -0.065798 0.048827 -0.014056 -0.064867 0.030437 0.056817 0.017195 -0.008784 
-0.041247 0.094100 -0.112102 -0.016392 -0.041867 -0.031764 0.082413 -0.008500 0.080232 0.110778 -0.082116 -0.071986 -0.058688 -0.063409 -0.058355 0.136416 0.075599 -0.105718 0.004414 0.063548 -0.076879 -0.041186 -0.119185 0.020685 
-0.027846 -0.111739 0.082356 -0.085349 -0.096458 0.119690 0.001201 0.056422 0.094301 0.054170 -0.085977 -0.042223 -0.037894 -0.104033 -0.116056 -0.080804 0.123506 -0.025711 -0.071226 0.029104 -0.061344 0.108296 -0.015010 -0.032655 
-0.075453 -0.086855 0.011232 -0.037830 -0.060828 0.013179 0.035410 0.048778 -0.016659 -0.062068 -0.040509 0.111551 0.085850 0.058575 -0.055685 0.037860 -0.071547 0.091884 -0.097936 0.080630 0.026654 -0.036866 0.064695 -0.080424 
0.069746 -0.032613 0.089834 0.040942 0.118522 -0.113880 -0.086790 -0.009099 -0.117498 -0.022380 -0.056163 0.011844 -0.010904 -0.095126 0.147392 0.039730 -0.001936 -0.073244 0.101989 -0.058348 -0.037199 -0.051296 0.041063 -0.030113 
-0.093199 0.037441 0.001569 0.084635 0.099256 -0.098907 -0.067196 0.026370 0.044581 -0.120209 -0.119066 0.039466 0.068752 0.033871 0.122870 -0.086882 0.009738 0.006119 -0.020887 -0.076088 -0.110716 0.018359 -0.082946 0.008796 
0.066581 0.035670 0.010879 0.026813 -0.113248 0.019443 0.072954 -0.078169 0.094900 0.025488 0.079254 0.058135 -0.101305 0.044742 -0.003036 0.081757 -0.045486 -0.050107 0.036618 0.004026 -0.072155 0.066701 0.081882 0.029563 
0.007554 -0.086991 0.006590 -0.087018 -0.042283 -0.105468 -0.077170 -0.119649 0.044238 -0.082842 -0.080347 -0.060252 0.072675 0.050928 0.145424 0.021749 -0.022544 -0.100624 0.076867 0.080997 -0.067843 -0.065372 0.024264 0.011590 
-0.055798 0.010131 -0.092167 -0.091672 0.090913 -0.104909 0.014413 -0.070847 -0.082217 -0.055213 0.059359 0.075073 -0.043451 0.104113 -0.023437 -0.033092 0.037746 0.058116 0.072853 -0.014200 0.039866 0.000255 0.004000 -0.069259 
0.089508 0.087302 0.011931 0.062806 0.030825 0.002250 -0.055597 0.124218 0.000429 0.058406 0.120261 0.050435 0.034946 0.070867 -0.080793 -0.033226 0.069745 0.092868 -0.052796 0.083499 0.104464 -0.011692 0.010814 0.061320 
1480.178487 -56.454634 -1461.764033 -609.450914 -1320.923087 381.706176 93.115171 500.847723 131.396865 1269.243205 728.816448 623.740516 -569.827147 -295.296268 -335.592304 361.412287 478.535173 -2033.807564 -1594.298831 1421.959313 887.400221 765.767790 -330.841831 613.292846 
0.104717 -0.018449 0.007470 0.016211 -0.007049 0.097559 0.120267 -0.009255 -5.307794 -0.053789 -0.007627 -0.109768 0.072007 0.062267 -0.091314 -0.016599 0.065251 -0.003392 0.033563 0.060438 0.092480 0.038884 -10.308945 -0.069680 0.111335 0.122029 -0.169330 -10.357235 -10.265103 0.069112 0.040364 -0.052140 -0.003277 -0.029941 21.134359 21.961116 
0.013234 0.166583 -0.138790 -0.082416 -0.115800 -0.032695 0.012010 0.022000 5.332267 0.023092 0.050848 0.181288 -0.074126 0.028714 0.053764 0.089563 -0.078857 0.001483 -0.050906 0.020796 0.068273 0.042277 0.364442 0.102393 -0.118596 0.013093 0.079941 0.439949 0.325176 -0.002347 0.015600 -0.009341 0.041714 -0.002510 -21.105936 -21.930354 
-0.078044 0.126111 -0.031212 0.012013 0.007666 -0.142812 -0.069066 0.001614 5.314263 -0.014972 -0.145067 0.151320 -0.104313 -0.040007 0.056047 0.086798 -0.099836 -0.046750 -0.071241 -0.152024 -0.002298 -0.095978 10.220387 0.038937 -0.055590 0.007495 -0.000384 10.198149 10.095471 0.110313 0.007731 -0.009175 -0.129468 -0.082838 -21.038204 -21.848717 
-0.093561 0.103788 -0.030433 -0.030707 0.021204 -0.000462 -0.014816 0.005276 5.344929 -0.070258 -0.032325 -0.025043 -0.103228 0.019694 -0.030601 -0.091180 -0.128328 -0.144774 -0.105471 0.035281 -0.059545 -0.067412 4.137127 -0.072999 0.040465 -0.011655 -0.031329 4.106502 4.033189 -0.016258 -0.030113 0.031799 -0.081526 0.027841 -21.158396 -21.807327 
0.034043 0.061982 0.010100 -0.132817 -0.025563 -0.102314 -0.019742 0.059239 5.332568 0.024888 -0.111842 -0.019281 0.004470 -0.033806 0.070586 0.019040 -0.014389 0.030444 -0.067848 -0.053223 -0.085333 0.016672 9.122970 0.190554 -0.081775 0.028653 0.029832 9.132571 9.092144 0.165095 0.073753 -0.030810 0.026965 -0.100418 -21.066455 -21.860393 
0.142270 -0.168619 0.146633 0.044000 0.093705 -0.037119 0.056013 -0.055680 -5.229301 -0.058299 0.060417 0.023774 0.016301 0.019969 -0.062261 0.007053 0.029821 -0.022642 0.078664 -0.027846 0.097760 -0.078594 -2.594972 -0.087420 0.020270 -0.031863 -0.045605 -2.605023 -2.456396 -0.075501 -0.090985 -0.095508 0.070252 0.084745 20.984003 21.930634 
-0.001418 0.051264 0.070012 0.037464 0.093375 0.052935 -0.000092 0.095966 -5.287612 0.050985 0.047026 -0.068996 0.054927 -0.072326 0.040812 0.044346 -0.063118 -0.063364 -0.035678 0.056000 -0.008219 0.037315 -0.631028 -0.007519 0.144557 0.013742 -0.049888 -0.595233 -0.636721 -0.086093 -0.051870 -0.107157 0.023932 0.142550 21.058036 21.842100 
0.058261 -0.158486 -0.011485 -0.009154 0.066531 0.142855 -0.032933 -0.003439 -5.318367 0.046264 0.012187 -0.128617 0.049610 0.028435 0.067895 -0.043522 -0.059677 -0.106319 -0.002401 0.144742 -0.001468 -0.003983 -3.429824 -0.059553 0.076928 0.155568 -0.196431 -3.251733 -3.384284 -0.041383 -0.074172 -0.092977 -0.022024 0.127254 21.035127 21.859929 
0.014421 -0.107416 0.139266 0.163794 0.024574 0.052526 -0.036706 -0.080888 -5.352111 0.040823 0.108207 -0.050025 -0.002497 0.039208 -0.071941 -0.036015 0.058480 -0.040492 0.024516 0.136118 -0.044163 -0.089691 -0.868206 -0.125057 0.025788 0.053242 -0.219853 -0.825976 -0.935909 -0.146753 -0.102592 -0.013163 0.024721 0.050520 21.145465 21.878136 
0.008184 -0.057785 0.011894 0.038619 0.035774 0.106245 0.064930 0.105659 -5.341320 0.014477 -0.027992 0.078389 0.059980 0.013749 -0.027561 -0.038023 -0.039586 0.093757 0.016327 0.053962 -0.080895 -0.032798 -8.682008 -0.158427 0.031884 0.129647 -0.065757 -8.697364 -8.823458 -0.030373 0.125165 -0.083688 0.147834 0.047519 21.121973 21.923163 
-0.005974 0.019690 0.111571 -0.063102 0.092594 0.133919 0.053634 0.101710 -5.393685 0.017707 0.082449 -0.009867 -0.024336 -0.068492 -0.082708 0.049687 0.025401 -0.021359 0.128281 0.130252 -0.079852 -0.015757 -4.922841 -0.095298 0.005595 0.103979 -0.129775 -4.828452 -4.971880 -0.227872 -0.096261 -0.026506 0.113076 0.094804 21.058892 21.844932 
0.069418 -0.025302 0.138277 0.133003 0.111735 -0.026627 0.006548 0.091730 -5.404540 -0.066170 -0.007389 0.028577 0.114113 -0.031980 0.090857 0.011747 0.184187 0.050691 0.128719 -0.005409 -0.044700 -0.091040 -4.245972 0.055567 0.058484 0.058238 -0.121040 -4.177738 -4.145499 0.117331 -0.043979 -0.000181 0.102776 0.051674 20.941345 21.941810 
-0.009331 0.002523 -0.092387 0.030831 -0.094358 0.001748 0.030697 -0.067761 5.346686 -0.010405 0.028235 0.045144 -0.151652 0.018429 -0.080450 -0.060613 0.050170 0.069329 -0.098898 -0.046161 -0.097540 0.090368 3.811310 0.108092 -0.105892 0.020647 0.033582 3.850931 3.805410 0.060598 -0.020994 -0.010672 -0.064790 0.008047 -21.154409 -21.868584 
-0.003426 0.002083 0.009874 0.000849 -0.066482 -0.036400 -0.005598 0.070457 5.309659 0.041545 0.033291 0.000107 -0.162437 0.040312 -0.035862 -0.053111 -0.173907 -0.193342 -0.161907 -0.056086 -0.099316 -0.069817 2.013533 0.075853 -0.102487 -0.054377 0.122551 1.953118 1.950859 -0.048933 -0.141269 -0.061611 -0.112511 -0.066069 -21.092186 -21.793869 
0.031056 0.032905 -0.027431 0.010650 0.002514 -0.035137 0.048746 -0.017381 5.309983 0.071327 -0.131054 0.235559 -0.060773 0.019119 0.001914 -0.042717 -0.034239 0.191095 -0.099282 -0.142734 0.094214 0.006571 2.226407 0.076789 0.047210 -0.116122 0.081891 2.259544 2.242869 0.231388 0.020172 0.050003 0.005587 0.042073 -21.105174 -21.947279 
0.151520 -0.062648 0.094389 -0.010734 -0.036951 0.025682 -0.004691 -0.052677 -5.352884 -0.066691 -0.033767 -0.029407 0.003150 0.009281 -0.016758 -0.085168 -0.018924 0.104731 0.076059 -0.013692 -0.072948 0.046025 -2.403490 0.073413 -0.023324 0.004995 0.019080 -2.449884 -2.393955 0.027018 0.053054 0.127265 0.100395 0.094902 21.076357 21.885644 
0.127452 -0.105590 -0.024607 0.083748 0.078738 0.044396 0.029320 -0.022159 -5.413963 -0.029133 -0.000724 -0.164199 -0.001437 0.038407 0.027439 -0.086206 0.148209 -0.030078 -0.022731 0.011968 -0.045781 0.053404 -3.210564 -0.035812 0.014342 -0.008882 -0.110778 -3.208762 -3.193826 0.008352 0.130676 -0.025126 -0.000320 -0.057328 20.992197 21.829307 
-0.022497 -0.054577 -0.121438 -0.091987 -0.129399 -0.008616 -0.084332 0.027933 5.399419 -0.110503 0.004784 0.120636 -0.129733 0.062937 0.013828 0.088672 -0.072347 -0.120508 -0.060077 -0.144516 0.097888 -0.040605 14.782519 0.010472 -0.015885 -0.058290 0.094517 14.911689 14.919890 -0.047576 -0.144937 -0.009048 -0.043875 -0.115656 -21.113729 -21.799539 
0.010417 0.030165 -0.101060 -0.144895 -0.062460 -0.038524 -0.065806 -0.047558 5.285936 -0.090004 -0.129019 0.160034 -0.123064 -0.060296 -0.052751 -0.011045 0.054065 0.007347 -0.037180 -0.053693 0.084661 0.040904 11.161446 0.156184 -0.152055 -0.050879 0.109845 11.194968 11.212937 0.072388 -0.072550 0.063487 0.047776 0.024147 -20.972002 -21.777022 
0.053859 -0.001406 0.012204 -0.027278 0.000733 -0.034921 0.112033 0.055242 -5.386479 -0.021004 -0.066674 -0.045920 0.023184 -0.048741 0.020658 0.092975 0.079847 0.043024 0.115946 0.042114 0.091266 -0.053722 -9.799483 -0.022744 0.001604 -0.014949 -0.146557 -9.834045 -9.977513 0.000320 -0.062671 0.016641 0.102533 0.018560 21.124447 21.909326 
-0.012894 -0.121567 0.009394 0.105751 -0.007556 0.131087 0.062132 -0.030515 -5.290334 -0.032420 0.152908 -0.106988 0.068669 0.093806 0.025047 0.027506 0.064927 -0.101699 0.067226 0.093398 0.010031 0.035447 -6.040376 -0.101702 0.124212 -0.031328 -0.226114 -6.007854 -5.969046 -0.167410 -0.058571 0.017971 0.024716 -0.035733 21.123136 21.772530 
0.055243 -0.145546 0.109970 -0.011565 0.081284 0.057879 -0.058056 0.023308 -5.389415 0.063807 0.036801 -0.105980 0.000620 0.103797 -0.098755 0.000473 -0.095056 -0.151443 0.145724 0.131912 0.019895 0.087127 -5.123735 -0.188583 0.136490 0.049579 -0.137669 -5.201613 -5.164616 -0.187571 0.030533 -0.056342 0.083405 0.151021 21.064931 21.810269 
-0.080757 0.076686 -0.072572 -0.093273 0.029730 -0.071002 -0.029867 0.079009 5.243239 -0.111130 -0.146921 0.142610 -0.130295 -0.098011 0.014982 -0.097064 -0.133111 0.002620 -0.112973 0.032924 0.046007 0.069366 2.120459 0.126107 0.059427 -0.164682 0.023877 2.231027 2.280870 0.083831 -0.026056 0.094031 -0.066240 -0.171832 -21.165032 -21.956484 
0.069764 0.023174 -0.021887 0.045821 0.040285 0.132082 0.024229 -0.013980 -5.385656 0.061923 -0.026053 -0.108130 -0.004591 0.069421 -0.084625 -0.021812 0.053062 -0.034265 0.135272 0.039649 0.037992 -0.073638 -4.065928 0.005197 0.115080 0.100045 -0.172427 -4.180418 -4.106925 -0.014890 -0.079736 -0.055426 -0.034837 0.083286 21.095835 21.838487 
0.200368 -0.046524 0.077370 0.120906 0.048662 0.166317 0.089798 0.009620 -5.348779 0.000920 -0.076345 0.097323 0.151036 0.014404 0.000000 0.000000 -0.046327 -0.068542 -0.131285 0.059983 0.000000 0.000000 -49.961128 0.017188 0.108948 0.047708 -0.002132 -49.986338 -49.991520 -0.152764 0.181163 0.092919 0.299909 -0.042733 -21.106413 -21.782501 
